<?xml version="1.0"?>
<opencv_storage>
<cascade>
  <stageType>BOOST</stageType>
  <featureType>HAAR</featureType>
  <height>20</height>
  <width>20</width>
  <stageParams>
    <boostType>GAB</boostType>
    <minHitRate>9.9500000476837158e-01</minHitRate>
    <maxFalseAlarm>5.0000000000000000e-01</maxFalseAlarm>
    <weightTrimRate>9.4999999999999996e-01</weightTrimRate>
    <maxDepth>1</maxDepth>
    <maxWeakCount>100</maxWeakCount></stageParams>
  <featureParams>
    <maxCatCount>0</maxCatCount>
    <featSize>1</featSize>
    <mode>BASIC</mode></featureParams>
  <stageNum>10</stageNum>
  <stages>
    <!-- stage 0 -->
    <_>
      <maxWeakCount>25</maxWeakCount>
      <stageThreshold>-1.1474708318710327e+00</stageThreshold>
      <weakClassifiers>
        <_>
          <internalNodes>
            0 -1 331 -2.1659727208316326e-03</internalNodes>
          <leafValues>
            7.8475338220596313e-01 -1.1013215780258179e-01</leafValues></_>
        <_>
          <internalNodes>
            0 -1 206 7.3130950331687927e-03</internalNodes>
          <leafValues>
            -2.8314793109893799e-01 4.9169683456420898e-01</leafValues></_>
        <_>
          <internalNodes>
            0 -1 42 -1.0195533931255341e-01</internalNodes>
          <leafValues>
            5.6787711381912231e-01 -1.7530110478401184e-01</leafValues></_>
        <_>
          <internalNodes>
            0 -1 17 5.4406356066465378e-03</internalNodes>
          <leafValues>
            -2.4101062119007111e-01 3.8788720965385437e-01</leafValues></_>
        <_>
          <internalNodes>
            0 -1 482 6.0151331126689911e-03</internalNodes>
          <leafValues>
            -2.8990176320075989e-01 3.0507805943489075e-01</leafValues></_>
        <_>
          <internalNodes>
            0 -1 134 7.9611036926507950e-03</internalNodes>
          <leafValues>
            -2.6207694411277771e-01 2.4859803915023804e-01</leafValues></_>
        <_>
          <internalNodes>
            0 -1 52 1.5670390799641609e-02</internalNodes>
          <leafValues>
            -1.5899048745632172e-01 3.9156386256217957e-01</leafValues></_>
        <_>
          <internalNodes>
            0 -1 483 -5.8194077573716640e-03</internalNodes>
          <leafValues>
            3.1299203634262085e-01 -1.8193057179450989e-01</leafValues></_>
        <_>
          <internalNodes>
            0 -1 544 7.7931503765285015e-03</internalNodes>
          <leafValues>
            -1.2890389561653137e-01 3.7452247738838196e-01</leafValues></_>
        <_>
          <internalNodes>
            0 -1 368 1.3381941244006157e-03</internalNodes>
          <leafValues>
            -1.7300067842006683e-01 3.4871068596839905e-01</leafValues></_>
        <_>
          <internalNodes>
            0 -1 525 2.5257887318730354e-03</internalNodes>
          <leafValues>
            -1.3355402648448944e-01 4.3289539217948914e-01</leafValues></_>
        <_>
          <internalNodes>
            0 -1 59 -7.4985727667808533e-02</internalNodes>
          <leafValues>
            4.4978150725364685e-01 -1.2329893559217453e-01</leafValues></_>
        <_>
          <internalNodes>
            0 -1 415 -1.1055935174226761e-03</internalNodes>
          <leafValues>
            2.9584497213363647e-01 -1.7329220473766327e-01</leafValues></_>
        <_>
          <internalNodes>
            0 -1 458 -3.3608202356845140e-03</internalNodes>
          <leafValues>
            2.9220771789550781e-01 -1.7737226188182831e-01</leafValues></_>
        <_>
          <internalNodes>
            0 -1 357 1.9266740418970585e-03</internalNodes>
          <leafValues>
            -1.4634937047958374e-01 3.0994647741317749e-01</leafValues></_>
        <_>
          <internalNodes>
            0 -1 263 4.9740262329578400e-03</internalNodes>
          <leafValues>
            -1.0179717093706131e-01 4.3594902753829956e-01</leafValues></_>
        <_>
          <internalNodes>
            0 -1 553 1.6612655017524958e-03</internalNodes>
          <leafValues>
            -1.2378812581300735e-01 3.5260656476020813e-01</leafValues></_>
        <_>
          <internalNodes>
            0 -1 481 4.6922410838305950e-03</internalNodes>
          <leafValues>
            -8.6195133626461029e-02 4.5516332983970642e-01</leafValues></_>
        <_>
          <internalNodes>
            0 -1 410 -7.6391070615500212e-04</internalNodes>
          <leafValues>
            3.0015081167221069e-01 -1.2944750487804413e-01</leafValues></_>
        <_>
          <internalNodes>
            0 -1 385 2.1158585324883461e-02</internalNodes>
          <leafValues>
            -6.2049221247434616e-02 5.6112760305404663e-01</leafValues></_>
        <_>
          <internalNodes>
            0 -1 420 -9.3068629503250122e-03</internalNodes>
          <leafValues>
            2.8664377331733704e-01 -1.2611582875251770e-01</leafValues></_>
        <_>
          <internalNodes>
            0 -1 107 -4.1250954382121563e-03</internalNodes>
          <leafValues>
            3.4126138687133789e-01 -1.1869347840547562e-01</leafValues></_>
        <_>
          <internalNodes>
            0 -1 550 2.4251826107501984e-03</internalNodes>
          <leafValues>
            -1.3504663109779358e-01 2.9469934105873108e-01</leafValues></_>
        <_>
          <internalNodes>
            0 -1 116 -1.6081085801124573e-01</internalNodes>
          <leafValues>
            6.4972311258316040e-01 -5.1212437450885773e-02</leafValues></_>
        <_>
          <internalNodes>
            0 -1 37 -1.4884625561535358e-03</internalNodes>
          <leafValues>
            2.3122684657573700e-01 -1.4087231457233429e-01</leafValues></_></weakClassifiers></_>
    <!-- stage 1 -->
    <_>
      <maxWeakCount>39</maxWeakCount>
      <stageThreshold>-9.6866673231124878e-01</stageThreshold>
      <weakClassifiers>
        <_>
          <internalNodes>
            0 -1 276 1.2321792542934418e-02</internalNodes>
          <leafValues>
            -1.8162393569946289e-01 6.0657596588134766e-01</leafValues></_>
        <_>
          <internalNodes>
            0 -1 330 -2.1659624762833118e-03</internalNodes>
          <leafValues>
            4.8756250739097595e-01 -1.3816183805465698e-01</leafValues></_>
        <_>
          <internalNodes>
            0 -1 528 -1.2008460238575935e-02</internalNodes>
          <leafValues>
            2.9445388913154602e-01 -2.4155689775943756e-01</leafValues></_>
        <_>
          <internalNodes>
            0 -1 338 6.6102594137191772e-03</internalNodes>
          <leafValues>
            -1.1192526668310165e-01 5.7431197166442871e-01</leafValues></_>
        <_>
          <internalNodes>
            0 -1 375 2.9099266976118088e-03</internalNodes>
          <leafValues>
            -2.5432491302490234e-01 2.2422111034393311e-01</leafValues></_>
        <_>
          <internalNodes>
            0 -1 240 2.0362196955829859e-03</internalNodes>
          <leafValues>
            -2.0999297499656677e-01 2.4474546313285828e-01</leafValues></_>
        <_>
          <internalNodes>
            0 -1 486 -3.2456286717206240e-03</internalNodes>
          <leafValues>
            3.7667909264564514e-01 -1.3710057735443115e-01</leafValues></_>
        <_>
          <internalNodes>
            0 -1 14 7.4349949136376381e-03</internalNodes>
          <leafValues>
            -1.5504464507102966e-01 3.1054055690765381e-01</leafValues></_>
        <_>
          <internalNodes>
            0 -1 484 8.2274642772972584e-04</internalNodes>
          <leafValues>
            -1.2645699083805084e-01 3.0263340473175049e-01</leafValues></_>
        <_>
          <internalNodes>
            0 -1 101 -1.8550322856754065e-03</internalNodes>
          <leafValues>
            2.6998132467269897e-01 -1.4391112327575684e-01</leafValues></_>
        <_>
          <internalNodes>
            0 -1 261 7.7877845615148544e-03</internalNodes>
          <leafValues>
            -9.5584161579608917e-02 4.2977350950241089e-01</leafValues></_>
        <_>
          <internalNodes>
            0 -1 563 -5.7847560383379459e-03</internalNodes>
          <leafValues>
            2.3971737921237946e-01 -1.5589466691017151e-01</leafValues></_>
        <_>
          <internalNodes>
            0 -1 210 1.3299111742526293e-03</internalNodes>
          <leafValues>
            -1.0840165615081787e-01 3.2873785495758057e-01</leafValues></_>
        <_>
          <internalNodes>
            0 -1 387 -1.4986569294705987e-03</internalNodes>
          <leafValues>
            3.4389984607696533e-01 -8.7807655334472656e-02</leafValues></_>
        <_>
          <internalNodes>
            0 -1 321 4.6373927034437656e-03</internalNodes>
          <leafValues>
            -8.4445394575595856e-02 3.1996938586235046e-01</leafValues></_>
        <_>
          <internalNodes>
            0 -1 363 4.3848729692399502e-03</internalNodes>
          <leafValues>
            -1.1727302521467209e-01 3.2280015945434570e-01</leafValues></_>
        <_>
          <internalNodes>
            0 -1 449 -2.4553730618208647e-03</internalNodes>
          <leafValues>
            2.0544472336769104e-01 -1.5307031571865082e-01</leafValues></_>
        <_>
          <internalNodes>
            0 -1 205 -7.8840114176273346e-02</internalNodes>
          <leafValues>
            3.2812470197677612e-01 -9.0280607342720032e-02</leafValues></_>
        <_>
          <internalNodes>
            0 -1 476 9.6574015915393829e-02</internalNodes>
          <leafValues>
            -7.8924939036369324e-02 4.0574765205383301e-01</leafValues></_>
        <_>
          <internalNodes>
            0 -1 402 1.8846960738301277e-03</internalNodes>
          <leafValues>
            -1.1284898966550827e-01 2.7669674158096313e-01</leafValues></_>
        <_>
          <internalNodes>
            0 -1 548 9.3865813687443733e-04</internalNodes>
          <leafValues>
            -1.2170871347188950e-01 2.4496528506278992e-01</leafValues></_>
        <_>
          <internalNodes>
            0 -1 40 -1.2535920832306147e-03</internalNodes>
          <leafValues>
            2.1321626007556915e-01 -1.3748733699321747e-01</leafValues></_>
        <_>
          <internalNodes>
            0 -1 567 5.8084563352167606e-04</internalNodes>
          <leafValues>
            -1.3637685775756836e-01 2.2498027980327606e-01</leafValues></_>
        <_>
          <internalNodes>
            0 -1 442 1.0320991277694702e-02</internalNodes>
          <leafValues>
            8.2818232476711273e-02 -4.0231549739837646e-01</leafValues></_>
        <_>
          <internalNodes>
            0 -1 222 1.3205286115407944e-02</internalNodes>
          <leafValues>
            3.5928864032030106e-02 -6.8758487701416016e-01</leafValues></_>
        <_>
          <internalNodes>
            0 -1 8 1.1384510248899460e-01</internalNodes>
          <leafValues>
            -1.0053318738937378e-01 3.2452279329299927e-01</leafValues></_>
        <_>
          <internalNodes>
            0 -1 15 -2.8901787474751472e-02</internalNodes>
          <leafValues>
            4.5742353796958923e-01 -5.7801205664873123e-02</leafValues></_>
        <_>
          <internalNodes>
            0 -1 297 2.0095543004572392e-03</internalNodes>
          <leafValues>
            -1.0595866292715073e-01 2.6957303285598755e-01</leafValues></_>
        <_>
          <internalNodes>
            0 -1 284 -7.8321172622963786e-04</internalNodes>
          <leafValues>
            2.4943861365318298e-01 -1.2001952528953552e-01</leafValues></_>
        <_>
          <internalNodes>
            0 -1 443 1.3122340664267540e-02</internalNodes>
          <leafValues>
            -6.2245205044746399e-02 4.4741329550743103e-01</leafValues></_>
        <_>
          <internalNodes>
            0 -1 580 2.9563461430370808e-03</internalNodes>
          <leafValues>
            5.5720929056406021e-02 -5.6647253036499023e-01</leafValues></_>
        <_>
          <internalNodes>
            0 -1 264 3.2365191145800054e-04</internalNodes>
          <leafValues>
            -1.4444692432880402e-01 2.1000866591930389e-01</leafValues></_>
        <_>
          <internalNodes>
            0 -1 492 1.0319687426090240e-03</internalNodes>
          <leafValues>
            -1.1640454828739166e-01 2.4139869213104248e-01</leafValues></_>
        <_>
          <internalNodes>
            0 -1 510 2.5538869202136993e-02</internalNodes>
          <leafValues>
            5.3039100021123886e-02 -6.2403440475463867e-01</leafValues></_>
        <_>
          <internalNodes>
            0 -1 367 -7.6653534779325128e-04</internalNodes>
          <leafValues>
            1.8615454435348511e-01 -1.5451610088348389e-01</leafValues></_>
        <_>
          <internalNodes>
            0 -1 38 -8.8441923260688782e-02</internalNodes>
          <leafValues>
            3.0874043703079224e-01 -1.0073268413543701e-01</leafValues></_>
        <_>
          <internalNodes>
            0 -1 388 -6.3940929248929024e-04</internalNodes>
          <leafValues>
            2.5522664189338684e-01 -1.1614262312650681e-01</leafValues></_>
        <_>
          <internalNodes>
            0 -1 393 -3.1067356467247009e-03</internalNodes>
          <leafValues>
            2.9659277200698853e-01 -9.1613560914993286e-02</leafValues></_>
        <_>
          <internalNodes>
            0 -1 61 5.1878467202186584e-03</internalNodes>
          <leafValues>
            -1.2258103489875793e-01 2.3282991349697113e-01</leafValues></_></weakClassifiers></_>
    <!-- stage 2 -->
    <_>
      <maxWeakCount>56</maxWeakCount>
      <stageThreshold>-8.9552569389343262e-01</stageThreshold>
      <weakClassifiers>
        <_>
          <internalNodes>
            0 -1 276 3.4549973905086517e-02</internalNodes>
          <leafValues>
            2.6952315121889114e-02 6.8715083599090576e-01</leafValues></_>
        <_>
          <internalNodes>
            0 -1 331 -3.3355145715177059e-03</internalNodes>
          <leafValues>
            3.6805143952369690e-01 -1.3728331029415131e-01</leafValues></_>
        <_>
          <internalNodes>
            0 -1 9 2.8292852640151978e-01</internalNodes>
          <leafValues>
            -1.6435204446315765e-01 3.8752493262290955e-01</leafValues></_>
        <_>
          <internalNodes>
            0 -1 480 1.1715162545442581e-02</internalNodes>
          <leafValues>
            -2.7112159132957458e-01 1.9099800288677216e-01</leafValues></_>
        <_>
          <internalNodes>
            0 -1 364 -2.1667640656232834e-02</internalNodes>
          <leafValues>
            -3.7763357162475586e-01 1.1990029364824295e-01</leafValues></_>
        <_>
          <internalNodes>
            0 -1 17 4.6295933425426483e-03</internalNodes>
          <leafValues>
            -1.8510034680366516e-01 2.1896147727966309e-01</leafValues></_>
        <_>
          <internalNodes>
            0 -1 465 -3.5735769197344780e-03</internalNodes>
          <leafValues>
            3.8669455051422119e-01 -1.0557056963443756e-01</leafValues></_>
        <_>
          <internalNodes>
            0 -1 270 -2.4047549813985825e-03</internalNodes>
          <leafValues>
            2.9259124398231506e-01 -1.4198835194110870e-01</leafValues></_>
        <_>
          <internalNodes>
            0 -1 126 -4.8354389145970345e-03</internalNodes>
          <leafValues>
            2.5196430087089539e-01 -1.4315390586853027e-01</leafValues></_>
        <_>
          <internalNodes>
            0 -1 217 -1.8392468336969614e-03</internalNodes>
          <leafValues>
            3.5566607117652893e-01 -9.1564126312732697e-02</leafValues></_>
        <_>
          <internalNodes>
            0 -1 215 4.3245732784271240e-02</internalNodes>
          <leafValues>
            4.8998162150382996e-02 -7.0155543088912964e-01</leafValues></_>
        <_>
          <internalNodes>
            0 -1 572 7.1722478605806828e-04</internalNodes>
          <leafValues>
            -1.4695529639720917e-01 2.4613799154758453e-01</leafValues></_>
        <_>
          <internalNodes>
            0 -1 572 -1.0295629035681486e-03</internalNodes>
          <leafValues>
            2.9776060581207275e-01 -1.1746645718812943e-01</leafValues></_>
        <_>
          <internalNodes>
            0 -1 250 2.5682570412755013e-02</internalNodes>
          <leafValues>
            4.9249991774559021e-02 -6.8088209629058838e-01</leafValues></_>
        <_>
          <internalNodes>
            0 -1 294 -8.2632238045334816e-03</internalNodes>
          <leafValues>
            -6.3980436325073242e-01 4.1654545813798904e-02</leafValues></_>
        <_>
          <internalNodes>
            0 -1 414 -6.2015536241233349e-04</internalNodes>
          <leafValues>
            2.1659225225448608e-01 -1.4766944944858551e-01</leafValues></_>
        <_>
          <internalNodes>
            0 -1 503 -1.2215990573167801e-03</internalNodes>
          <leafValues>
            2.5641381740570068e-01 -1.1422676593065262e-01</leafValues></_>
        <_>
          <internalNodes>
            0 -1 503 1.6774429241195321e-03</internalNodes>
          <leafValues>
            -1.0774556547403336e-01 2.6467037200927734e-01</leafValues></_>
        <_>
          <internalNodes>
            0 -1 298 -8.0437015276402235e-04</internalNodes>
          <leafValues>
            2.0053167641162872e-01 -1.3298127055168152e-01</leafValues></_>
        <_>
          <internalNodes>
            0 -1 531 2.3289131931960583e-03</internalNodes>
          <leafValues>
            -1.1155879497528076e-01 2.5730565190315247e-01</leafValues></_>
        <_>
          <internalNodes>
            0 -1 472 -4.7331374138593674e-02</internalNodes>
          <leafValues>
            -7.5644910335540771e-01 4.0244795382022858e-02</leafValues></_>
        <_>
          <internalNodes>
            0 -1 128 1.2564322911202908e-02</internalNodes>
          <leafValues>
            -8.4552653133869171e-02 3.4401726722717285e-01</leafValues></_>
        <_>
          <internalNodes>
            0 -1 538 2.6579692959785461e-02</internalNodes>
          <leafValues>
            -1.1428071558475494e-01 2.4595054984092712e-01</leafValues></_>
        <_>
          <internalNodes>
            0 -1 529 7.4019061867147684e-04</internalNodes>
          <leafValues>
            -1.4951057732105255e-01 1.9755478203296661e-01</leafValues></_>
        <_>
          <internalNodes>
            0 -1 28 -2.6973977684974670e-02</internalNodes>
          <leafValues>
            -3.7438124418258667e-01 7.3498405516147614e-02</leafValues></_>
        <_>
          <internalNodes>
            0 -1 144 -1.3985309749841690e-02</internalNodes>
          <leafValues>
            -4.1209155321121216e-01 6.3648797571659088e-02</leafValues></_>
        <_>
          <internalNodes>
            0 -1 574 7.8265450429171324e-04</internalNodes>
          <leafValues>
            -1.2719652056694031e-01 2.0525209605693817e-01</leafValues></_>
        <_>
          <internalNodes>
            0 -1 108 -5.0885137170553207e-03</internalNodes>
          <leafValues>
            2.2385400533676147e-01 -1.1872778832912445e-01</leafValues></_>
        <_>
          <internalNodes>
            0 -1 78 -9.7321003675460815e-02</internalNodes>
          <leafValues>
            4.9081054329872131e-01 -6.3375651836395264e-02</leafValues></_>
        <_>
          <internalNodes>
            0 -1 115 -2.5784347206354141e-02</internalNodes>
          <leafValues>
            3.7197136878967285e-01 -7.3346391320228577e-02</leafValues></_>
        <_>
          <internalNodes>
            0 -1 479 -6.2501035630702972e-02</internalNodes>
          <leafValues>
            -7.0475602149963379e-01 4.6217132359743118e-02</leafValues></_>
        <_>
          <internalNodes>
            0 -1 507 5.1868944428861141e-03</internalNodes>
          <leafValues>
            -1.0305645316839218e-01 3.0963897705078125e-01</leafValues></_>
        <_>
          <internalNodes>
            0 -1 72 1.7370793968439102e-02</internalNodes>
          <leafValues>
            3.9358783513307571e-02 -7.7117353677749634e-01</leafValues></_>
        <_>
          <internalNodes>
            0 -1 561 -1.1287311790511012e-03</internalNodes>
          <leafValues>
            1.8941102921962738e-01 -1.4305098354816437e-01</leafValues></_>
        <_>
          <internalNodes>
            0 -1 302 1.6146202106028795e-03</internalNodes>
          <leafValues>
            7.9003117978572845e-02 -3.4977203607559204e-01</leafValues></_>
        <_>
          <internalNodes>
            0 -1 377 2.0678802393376827e-03</internalNodes>
          <leafValues>
            -1.0459608584642410e-01 2.7440327405929565e-01</leafValues></_>
        <_>
          <internalNodes>
            0 -1 324 -4.7680875286459923e-03</internalNodes>
          <leafValues>
            -3.4024161100387573e-01 9.0212307870388031e-02</leafValues></_>
        <_>
          <internalNodes>
            0 -1 86 -6.3318884931504726e-03</internalNodes>
          <leafValues>
            3.4979015588760376e-01 -7.7979311347007751e-02</leafValues></_>
        <_>
          <internalNodes>
            0 -1 580 -3.5972939804196358e-03</internalNodes>
          <leafValues>
            -7.1414399147033691e-01 4.1684258729219437e-02</leafValues></_>
        <_>
          <internalNodes>
            0 -1 532 -1.3800655724480748e-03</internalNodes>
          <leafValues>
            2.7128064632415771e-01 -1.0177166759967804e-01</leafValues></_>
        <_>
          <internalNodes>
            0 -1 456 -2.1074684336781502e-03</internalNodes>
          <leafValues>
            1.7806127667427063e-01 -1.4538712799549103e-01</leafValues></_>
        <_>
          <internalNodes>
            0 -1 407 -6.9348476827144623e-03</internalNodes>
          <leafValues>
            2.4180239439010620e-01 -1.0856343060731888e-01</leafValues></_>
        <_>
          <internalNodes>
            0 -1 311 -4.4195864349603653e-02</internalNodes>
          <leafValues>
            -7.4103897809982300e-01 3.7789572030305862e-02</leafValues></_>
        <_>
          <internalNodes>
            0 -1 473 -1.3021925091743469e-01</internalNodes>
          <leafValues>
            6.1110025644302368e-01 -5.0782095640897751e-02</leafValues></_>
        <_>
          <internalNodes>
            0 -1 515 9.8450966179370880e-03</internalNodes>
          <leafValues>
            -4.4172387570142746e-02 4.9279010295867920e-01</leafValues></_>
        <_>
          <internalNodes>
            0 -1 554 2.1354760974645615e-03</internalNodes>
          <leafValues>
            -8.8705725967884064e-02 2.9124090075492859e-01</leafValues></_>
        <_>
          <internalNodes>
            0 -1 499 -1.0295469313859940e-02</internalNodes>
          <leafValues>
            5.2221041917800903e-01 -4.7239709645509720e-02</leafValues></_>
        <_>
          <internalNodes>
            0 -1 535 -1.3203069102019072e-03</internalNodes>
          <leafValues>
            2.4884225428104401e-01 -9.7888261079788208e-02</leafValues></_>
        <_>
          <internalNodes>
            0 -1 286 -1.6648683696985245e-02</internalNodes>
          <leafValues>
            2.8687313199043274e-01 -8.6350299417972565e-02</leafValues></_>
        <_>
          <internalNodes>
            0 -1 578 -3.2860846258699894e-03</internalNodes>
          <leafValues>
            -5.4422366619110107e-01 4.7901812940835953e-02</leafValues></_>
        <_>
          <internalNodes>
            0 -1 466 -9.5794461667537689e-03</internalNodes>
          <leafValues>
            4.8290801048278809e-01 -5.3850319236516953e-02</leafValues></_>
        <_>
          <internalNodes>
            0 -1 292 -3.8431275635957718e-02</internalNodes>
          <leafValues>
            -3.5395565629005432e-01 7.7910616993904114e-02</leafValues></_>
        <_>
          <internalNodes>
            0 -1 366 -9.4961211085319519e-02</internalNodes>
          <leafValues>
            -7.2372823953628540e-01 3.5975303500890732e-02</leafValues></_>
        <_>
          <internalNodes>
            0 -1 438 2.2905599325895309e-03</internalNodes>
          <leafValues>
            -1.1131397634744644e-01 2.5078693032264709e-01</leafValues></_>
        <_>
          <internalNodes>
            0 -1 83 8.6524533107876778e-03</internalNodes>
          <leafValues>
            -1.1139663308858871e-01 2.1579459309577942e-01</leafValues></_>
        <_>
          <internalNodes>
            0 -1 114 3.6445818841457367e-02</internalNodes>
          <leafValues>
            -5.6573603302240372e-02 4.9309489130973816e-01</leafValues></_></weakClassifiers></_>
    <!-- stage 3 -->
    <_>
      <maxWeakCount>56</maxWeakCount>
      <stageThreshold>-8.0659967660903931e-01</stageThreshold>
      <weakClassifiers>
        <_>
          <internalNodes>
            0 -1 244 4.0637411177158356e-02</internalNodes>
          <leafValues>
            4.3668121099472046e-02 6.3348418474197388e-01</leafValues></_>
        <_>
          <internalNodes>
            0 -1 342 -2.9460252262651920e-03</internalNodes>
          <leafValues>
            4.0104019641876221e-01 -1.0710711032152176e-01</leafValues></_>
        <_>
          <internalNodes>
            0 -1 202 6.1377309262752533e-02</internalNodes>
          <leafValues>
            -1.3206061720848083e-01 3.6099675297737122e-01</leafValues></_>
        <_>
          <internalNodes>
            0 -1 395 -1.0738085955381393e-02</internalNodes>
          <leafValues>
            4.3682116270065308e-01 -1.1830043792724609e-01</leafValues></_>
        <_>
          <internalNodes>
            0 -1 427 -1.1791165452450514e-03</internalNodes>
          <leafValues>
            3.0330777168273926e-01 -1.5516503155231476e-01</leafValues></_>
        <_>
          <internalNodes>
            0 -1 516 -5.1412959583103657e-03</internalNodes>
          <leafValues>
            1.8811520934104919e-01 -2.4190804362297058e-01</leafValues></_>
        <_>
          <internalNodes>
            0 -1 337 -4.9101160839200020e-03</internalNodes>
          <leafValues>
            2.8107956051826477e-01 -1.5749534964561462e-01</leafValues></_>
        <_>
          <internalNodes>
            0 -1 105 -1.4813616871833801e-03</internalNodes>
          <leafValues>
            2.2988948225975037e-01 -1.4223878085613251e-01</leafValues></_>
        <_>
          <internalNodes>
            0 -1 585 -3.2834135927259922e-03</internalNodes>
          <leafValues>
            -2.2351305186748505e-01 1.4060467481613159e-01</leafValues></_>
        <_>
          <internalNodes>
            0 -1 262 -4.3184878304600716e-03</internalNodes>
          <leafValues>
            3.0448523163795471e-01 -1.0630118846893311e-01</leafValues></_>
        <_>
          <internalNodes>
            0 -1 322 5.3046857938170433e-03</internalNodes>
          <leafValues>
            5.6227069348096848e-02 -5.9861236810684204e-01</leafValues></_>
        <_>
          <internalNodes>
            0 -1 243 3.7090219557285309e-02</internalNodes>
          <leafValues>
            6.1647508293390274e-02 -5.6109273433685303e-01</leafValues></_>
        <_>
          <internalNodes>
            0 -1 11 2.4597007781267166e-02</internalNodes>
          <leafValues>
            -8.8889367878437042e-02 3.3195590972900391e-01</leafValues></_>
        <_>
          <internalNodes>
            0 -1 347 1.0728203691542149e-02</internalNodes>
          <leafValues>
            5.2072290331125259e-02 -5.5315041542053223e-01</leafValues></_>
        <_>
          <internalNodes>
            0 -1 97 1.3507156632840633e-02</internalNodes>
          <leafValues>
            -1.4132234454154968e-01 2.0594318211078644e-01</leafValues></_>
        <_>
          <internalNodes>
            0 -1 549 -2.8127944096922874e-03</internalNodes>
          <leafValues>
            2.4981613457202911e-01 -1.0399920493364334e-01</leafValues></_>
        <_>
          <internalNodes>
            0 -1 325 9.6502673113718629e-04</internalNodes>
          <leafValues>
            -1.2240312993526459e-01 2.0480024814605713e-01</leafValues></_>
        <_>
          <internalNodes>
            0 -1 329 -8.8196911383420229e-04</internalNodes>
          <leafValues>
            2.4767214059829712e-01 -1.3956715166568756e-01</leafValues></_>
        <_>
          <internalNodes>
            0 -1 153 1.6079094260931015e-02</internalNodes>
          <leafValues>
            6.2035359442234039e-02 -4.4373852014541626e-01</leafValues></_>
        <_>
          <internalNodes>
            0 -1 29 -2.1999172866344452e-02</internalNodes>
          <leafValues>
            -3.1641593575477600e-01 8.2750447094440460e-02</leafValues></_>
        <_>
          <internalNodes>
            0 -1 152 9.0986311435699463e-02</internalNodes>
          <leafValues>
            4.8370260745286942e-02 -5.3785628080368042e-01</leafValues></_>
        <_>
          <internalNodes>
            0 -1 89 1.3292363286018372e-01</internalNodes>
          <leafValues>
            -6.3949197530746460e-02 3.9543128013610840e-01</leafValues></_>
        <_>
          <internalNodes>
            0 -1 33 1.1137741385027766e-03</internalNodes>
          <leafValues>
            -1.1058759689331055e-01 2.2877644002437592e-01</leafValues></_>
        <_>
          <internalNodes>
            0 -1 428 1.3906267704442143e-03</internalNodes>
          <leafValues>
            -1.0777457803487778e-01 2.2942924499511719e-01</leafValues></_>
        <_>
          <internalNodes>
            0 -1 425 -2.4461175780743361e-03</internalNodes>
          <leafValues>
            2.0451746881008148e-01 -1.0940258949995041e-01</leafValues></_>
        <_>
          <internalNodes>
            0 -1 267 6.3341539353132248e-03</internalNodes>
          <leafValues>
            7.4107773602008820e-02 -3.2042083144187927e-01</leafValues></_>
        <_>
          <internalNodes>
            0 -1 488 -1.8838208168745041e-02</internalNodes>
          <leafValues>
            -4.4805940985679626e-01 5.4806437343358994e-02</leafValues></_>
        <_>
          <internalNodes>
            0 -1 400 3.5732939839363098e-02</internalNodes>
          <leafValues>
            4.9133807420730591e-02 -4.6480718255043030e-01</leafValues></_>
        <_>
          <internalNodes>
            0 -1 139 -3.5046949051320553e-03</internalNodes>
          <leafValues>
            -3.8538607954978943e-01 5.3580693900585175e-02</leafValues></_>
        <_>
          <internalNodes>
            0 -1 235 -3.3322928939014673e-03</internalNodes>
          <leafValues>
            -2.7759388089179993e-01 7.6941050589084625e-02</leafValues></_>
        <_>
          <internalNodes>
            0 -1 494 1.9605185836553574e-02</internalNodes>
          <leafValues>
            3.0871778726577759e-02 -7.1594208478927612e-01</leafValues></_>
        <_>
          <internalNodes>
            0 -1 521 -5.4201353341341019e-03</internalNodes>
          <leafValues>
            -2.4749538302421570e-01 8.8307388126850128e-02</leafValues></_>
        <_>
          <internalNodes>
            0 -1 457 -1.8900280119851232e-03</internalNodes>
          <leafValues>
            1.7072728276252747e-01 -1.3573527336120605e-01</leafValues></_>
        <_>
          <internalNodes>
            0 -1 422 5.4788487032055855e-03</internalNodes>
          <leafValues>
            -1.5142688155174255e-01 1.7261214554309845e-01</leafValues></_>
        <_>
          <internalNodes>
            0 -1 138 6.8674529902637005e-03</internalNodes>
          <leafValues>
            -1.1847330629825592e-01 2.0448087155818939e-01</leafValues></_>
        <_>
          <internalNodes>
            0 -1 316 1.7916786018759012e-03</internalNodes>
          <leafValues>
            -7.7643342316150665e-02 3.1597232818603516e-01</leafValues></_>
        <_>
          <internalNodes>
            0 -1 302 3.7383879534900188e-03</internalNodes>
          <leafValues>
            4.3832384049892426e-02 -5.4941523075103760e-01</leafValues></_>
        <_>
          <internalNodes>
            0 -1 570 -5.1274755969643593e-03</internalNodes>
          <leafValues>
            2.4243967235088348e-01 -9.4951137900352478e-02</leafValues></_>
        <_>
          <internalNodes>
            0 -1 557 -1.6594098415225744e-03</internalNodes>
          <leafValues>
            -3.1867650151252747e-01 7.0201814174652100e-02</leafValues></_>
        <_>
          <internalNodes>
            0 -1 178 -9.9836837034672499e-04</internalNodes>
          <leafValues>
            2.5947472453117371e-01 -9.4437606632709503e-02</leafValues></_>
        <_>
          <internalNodes>
            0 -1 190 1.7400536686182022e-02</internalNodes>
          <leafValues>
            3.0773414298892021e-02 -7.9393726587295532e-01</leafValues></_>
        <_>
          <internalNodes>
            0 -1 44 -6.1068320064805448e-05</internalNodes>
          <leafValues>
            1.4906422793865204e-01 -1.5201552212238312e-01</leafValues></_>
        <_>
          <internalNodes>
            0 -1 312 -7.5294729322195053e-04</internalNodes>
          <leafValues>
            2.4317398667335510e-01 -8.9817829430103302e-02</leafValues></_>
        <_>
          <internalNodes>
            0 -1 209 -2.4354556575417519e-02</internalNodes>
          <leafValues>
            -4.5131266117095947e-01 5.0875872373580933e-02</leafValues></_>
        <_>
          <internalNodes>
            0 -1 362 1.3620015233755112e-03</internalNodes>
          <leafValues>
            -1.2238569557666779e-01 1.8380819261074066e-01</leafValues></_>
        <_>
          <internalNodes>
            0 -1 344 8.1255659461021423e-03</internalNodes>
          <leafValues>
            2.7446852996945381e-02 -7.9047328233718872e-01</leafValues></_>
        <_>
          <internalNodes>
            0 -1 333 -2.4879740085452795e-03</internalNodes>
          <leafValues>
            -3.0464997887611389e-01 7.1802809834480286e-02</leafValues></_>
        <_>
          <internalNodes>
            0 -1 582 9.0068916324526072e-04</internalNodes>
          <leafValues>
            8.2887843251228333e-02 -2.8799697756767273e-01</leafValues></_>
        <_>
          <internalNodes>
            0 -1 63 1.2082888279110193e-03</internalNodes>
          <leafValues>
            -1.2533938884735107e-01 1.8192672729492188e-01</leafValues></_>
        <_>
          <internalNodes>
            0 -1 54 -5.0270825158804655e-04</internalNodes>
          <leafValues>
            1.8473297357559204e-01 -1.3786017894744873e-01</leafValues></_>
        <_>
          <internalNodes>
            0 -1 26 8.6938571184873581e-03</internalNodes>
          <leafValues>
            1.1821617186069489e-01 -2.1878646314144135e-01</leafValues></_>
        <_>
          <internalNodes>
            0 -1 559 -7.6556988060474396e-03</internalNodes>
          <leafValues>
            1.9185957312583923e-01 -1.2640711665153503e-01</leafValues></_>
        <_>
          <internalNodes>
            0 -1 379 -1.2692639138549566e-03</internalNodes>
          <leafValues>
            2.5340494513511658e-01 -9.1796025633811951e-02</leafValues></_>
        <_>
          <internalNodes>
            0 -1 433 9.2935201246291399e-04</internalNodes>
          <leafValues>
            -9.7408019006252289e-02 2.2819159924983978e-01</leafValues></_>
        <_>
          <internalNodes>
            0 -1 79 2.1357843652367592e-03</internalNodes>
          <leafValues>
            5.3772136569023132e-02 -4.2591887712478638e-01</leafValues></_>
        <_>
          <internalNodes>
            0 -1 187 -1.8254820257425308e-02</internalNodes>
          <leafValues>
            -5.4143834114074707e-01 3.9256837218999863e-02</leafValues></_></weakClassifiers></_>
    <!-- stage 4 -->
    <_>
      <maxWeakCount>70</maxWeakCount>
      <stageThreshold>-7.5953388214111328e-01</stageThreshold>
      <weakClassifiers>
        <_>
          <internalNodes>
            0 -1 207 6.4456939697265625e-02</internalNodes>
          <leafValues>
            1.2124849855899811e-01 6.7504835128784180e-01</leafValues></_>
        <_>
          <internalNodes>
            0 -1 310 3.9825309067964554e-03</internalNodes>
          <leafValues>
            -1.5399999916553497e-01 2.8685572743415833e-01</leafValues></_>
        <_>
          <internalNodes>
            0 -1 75 -7.8506365418434143e-02</internalNodes>
          <leafValues>
            2.9854649305343628e-01 -1.4698387682437897e-01</leafValues></_>
        <_>
          <internalNodes>
            0 -1 558 -7.1182511746883392e-03</internalNodes>
          <leafValues>
            1.8499678373336792e-01 -2.1046531200408936e-01</leafValues></_>
        <_>
          <internalNodes>
            0 -1 412 3.5245968028903008e-03</internalNodes>
          <leafValues>
            -1.0257730633020401e-01 2.8288888931274414e-01</leafValues></_>
        <_>
          <internalNodes>
            0 -1 331 -1.8602467607706785e-03</internalNodes>
          <leafValues>
            1.4760783314704895e-01 -1.7920930683612823e-01</leafValues></_>
        <_>
          <internalNodes>
            0 -1 58 8.5294544696807861e-03</internalNodes>
          <leafValues>
            -1.2518905103206635e-01 2.1754632890224457e-01</leafValues></_>
        <_>
          <internalNodes>
            0 -1 493 -1.1011591413989663e-03</internalNodes>
          <leafValues>
            2.4101780354976654e-01 -1.0495314747095108e-01</leafValues></_>
        <_>
          <internalNodes>
            0 -1 464 -1.0880059562623501e-03</internalNodes>
          <leafValues>
            1.8447317183017731e-01 -1.2905848026275635e-01</leafValues></_>
        <_>
          <internalNodes>
            0 -1 102 8.5282847285270691e-03</internalNodes>
          <leafValues>
            -1.2153518199920654e-01 2.1338169276714325e-01</leafValues></_>
        <_>
          <internalNodes>
            0 -1 520 3.2428856939077377e-03</internalNodes>
          <leafValues>
            -9.0295359492301941e-02 2.7162489295005798e-01</leafValues></_>
        <_>
          <internalNodes>
            0 -1 269 9.9715674296021461e-03</internalNodes>
          <leafValues>
            5.0077479332685471e-02 -5.5290031433105469e-01</leafValues></_>
        <_>
          <internalNodes>
            0 -1 396 -6.1701238155364990e-03</internalNodes>
          <leafValues>
            2.3786379396915436e-01 -1.0955787450075150e-01</leafValues></_>
        <_>
          <internalNodes>
            0 -1 427 -1.8027630867436528e-03</internalNodes>
          <leafValues>
            2.5865349173545837e-01 -1.0094919055700302e-01</leafValues></_>
        <_>
          <internalNodes>
            0 -1 162 -1.0332381352782249e-02</internalNodes>
          <leafValues>
            -3.7158083915710449e-01 6.6994525492191315e-02</leafValues></_>
        <_>
          <internalNodes>
            0 -1 146 -8.2994773983955383e-03</internalNodes>
          <leafValues>
            2.9305574297904968e-01 -8.5145741701126099e-02</leafValues></_>
        <_>
          <internalNodes>
            0 -1 156 2.4117369204759598e-02</internalNodes>
          <leafValues>
            4.0850214660167694e-02 -6.6716802120208740e-01</leafValues></_>
        <_>
          <internalNodes>
            0 -1 85 -9.1205768287181854e-02</internalNodes>
          <leafValues>
            5.6438755989074707e-01 -4.5184150338172913e-02</leafValues></_>
        <_>
          <internalNodes>
            0 -1 4 1.9151804968714714e-02</internalNodes>
          <leafValues>
            -9.1233029961585999e-02 2.7343863248825073e-01</leafValues></_>
        <_>
          <internalNodes>
            0 -1 391 8.4058474749326706e-04</internalNodes>
          <leafValues>
            -8.9428693056106567e-02 2.4289447069168091e-01</leafValues></_>
        <_>
          <internalNodes>
            0 -1 66 -2.4364147335290909e-02</internalNodes>
          <leafValues>
            -6.7922073602676392e-01 3.6305766552686691e-02</leafValues></_>
        <_>
          <internalNodes>
            0 -1 392 -2.1087203640490770e-03</internalNodes>
          <leafValues>
            2.1008670330047607e-01 -1.0636883974075317e-01</leafValues></_>
        <_>
          <internalNodes>
            0 -1 281 9.9067632108926773e-03</internalNodes>
          <leafValues>
            3.4785710275173187e-02 -6.0588979721069336e-01</leafValues></_>
        <_>
          <internalNodes>
            0 -1 338 7.8568682074546814e-03</internalNodes>
          <leafValues>
            -6.7757129669189453e-02 3.3552509546279907e-01</leafValues></_>
        <_>
          <internalNodes>
            0 -1 361 -1.1228006333112717e-02</internalNodes>
          <leafValues>
            -7.1894937753677368e-01 2.9909672215580940e-02</leafValues></_>
        <_>
          <internalNodes>
            0 -1 254 -5.4694293066859245e-03</internalNodes>
          <leafValues>
            -4.3007683753967285e-01 4.3464787304401398e-02</leafValues></_>
        <_>
          <internalNodes>
            0 -1 555 -1.3931132853031158e-03</internalNodes>
          <leafValues>
            2.0572149753570557e-01 -1.0453201830387115e-01</leafValues></_>
        <_>
          <internalNodes>
            0 -1 568 -2.1676830947399139e-03</internalNodes>
          <leafValues>
            2.3195669054985046e-01 -9.1688185930252075e-02</leafValues></_>
        <_>
          <internalNodes>
            0 -1 1 -2.4646841920912266e-03</internalNodes>
          <leafValues>
            -4.2082485556602478e-01 5.1758721470832825e-02</leafValues></_>
        <_>
          <internalNodes>
            0 -1 378 7.2752300184220076e-04</internalNodes>
          <leafValues>
            -1.2820754945278168e-01 1.6668166220188141e-01</leafValues></_>
        <_>
          <internalNodes>
            0 -1 404 2.0269658416509628e-03</internalNodes>
          <leafValues>
            -8.7248735129833221e-02 2.5929525494575500e-01</leafValues></_>
        <_>
          <internalNodes>
            0 -1 444 5.2944468334317207e-03</internalNodes>
          <leafValues>
            4.3632946908473969e-02 -4.7914922237396240e-01</leafValues></_>
        <_>
          <internalNodes>
            0 -1 451 -1.9363263621926308e-02</internalNodes>
          <leafValues>
            -6.8778520822525024e-01 2.8428692370653152e-02</leafValues></_>
        <_>
          <internalNodes>
            0 -1 403 1.8670142162591219e-03</internalNodes>
          <leafValues>
            -9.8325461149215698e-02 2.1070380508899689e-01</leafValues></_>
        <_>
          <internalNodes>
            0 -1 471 6.0248805675655603e-04</internalNodes>
          <leafValues>
            9.1033793985843658e-02 -2.2026029229164124e-01</leafValues></_>
        <_>
          <internalNodes>
            0 -1 336 -1.4948619529604912e-02</internalNodes>
          <leafValues>
            -8.9325231313705444e-01 2.3648958653211594e-02</leafValues></_>
        <_>
          <internalNodes>
            0 -1 557 3.2554459758102894e-03</internalNodes>
          <leafValues>
            3.2476633787155151e-02 -5.0540655851364136e-01</leafValues></_>
        <_>
          <internalNodes>
            0 -1 258 2.3625879548490047e-03</internalNodes>
          <leafValues>
            -8.6011148989200592e-02 2.2615601122379303e-01</leafValues></_>
        <_>
          <internalNodes>
            0 -1 258 -1.5093849506229162e-03</internalNodes>
          <leafValues>
            2.3674724996089935e-01 -9.9387712776660919e-02</leafValues></_>
        <_>
          <internalNodes>
            0 -1 513 -2.9948074370622635e-03</internalNodes>
          <leafValues>
            -4.4064605236053467e-01 4.3060306459665298e-02</leafValues></_>
        <_>
          <internalNodes>
            0 -1 45 -2.9206564649939537e-03</internalNodes>
          <leafValues>
            1.6118517518043518e-01 -1.2793089449405670e-01</leafValues></_>
        <_>
          <internalNodes>
            0 -1 201 5.0902459770441055e-03</internalNodes>
          <leafValues>
            2.6782263070344925e-02 -7.3530954122543335e-01</leafValues></_>
        <_>
          <internalNodes>
            0 -1 588 -8.4247661288827658e-04</internalNodes>
          <leafValues>
            -2.5905847549438477e-01 7.1736514568328857e-02</leafValues></_>
        <_>
          <internalNodes>
            0 -1 579 -1.0707436595112085e-03</internalNodes>
          <leafValues>
            1.7632384598255157e-01 -1.2232388556003571e-01</leafValues></_>
        <_>
          <internalNodes>
            0 -1 245 2.2588330321013927e-03</internalNodes>
          <leafValues>
            -1.3586489856243134e-01 1.4939388632774353e-01</leafValues></_>
        <_>
          <internalNodes>
            0 -1 23 -3.6651629954576492e-02</internalNodes>
          <leafValues>
            -4.1108259558677673e-01 5.0106611102819443e-02</leafValues></_>
        <_>
          <internalNodes>
            0 -1 573 -2.5195875205099583e-03</internalNodes>
          <leafValues>
            2.2464725375175476e-01 -9.5703393220901489e-02</leafValues></_>
        <_>
          <internalNodes>
            0 -1 39 1.4712940901517868e-03</internalNodes>
          <leafValues>
            -7.8432984650135040e-02 2.5902220606803894e-01</leafValues></_>
        <_>
          <internalNodes>
            0 -1 13 -1.8162354535888880e-04</internalNodes>
          <leafValues>
            1.4927932620048523e-01 -1.4362291991710663e-01</leafValues></_>
        <_>
          <internalNodes>
            0 -1 373 4.0514124557375908e-03</internalNodes>
          <leafValues>
            4.7497998923063278e-02 -4.3441432714462280e-01</leafValues></_>
        <_>
          <internalNodes>
            0 -1 170 6.5213777124881744e-03</internalNodes>
          <leafValues>
            2.8457159176468849e-02 -5.9957963228225708e-01</leafValues></_>
        <_>
          <internalNodes>
            0 -1 227 3.7064212374389172e-03</internalNodes>
          <leafValues>
            -5.6278049945831299e-02 3.6423456668853760e-01</leafValues></_>
        <_>
          <internalNodes>
            0 -1 299 8.9734122157096863e-03</internalNodes>
          <leafValues>
            2.3697039112448692e-02 -8.8590610027313232e-01</leafValues></_>
        <_>
          <internalNodes>
            0 -1 434 1.0519693605601788e-03</internalNodes>
          <leafValues>
            -9.5650665462017059e-02 2.0993046462535858e-01</leafValues></_>
        <_>
          <internalNodes>
            0 -1 514 2.9994323849678040e-03</internalNodes>
          <leafValues>
            3.9159514009952545e-02 -4.7502404451370239e-01</leafValues></_>
        <_>
          <internalNodes>
            0 -1 213 -3.4220248460769653e-02</internalNodes>
          <leafValues>
            -4.6266573667526245e-01 3.6463096737861633e-02</leafValues></_>
        <_>
          <internalNodes>
            0 -1 55 3.4822240471839905e-02</internalNodes>
          <leafValues>
            -9.0032480657100677e-02 2.0941060781478882e-01</leafValues></_>
        <_>
          <internalNodes>
            0 -1 131 9.4258546829223633e-02</internalNodes>
          <leafValues>
            3.9675872772932053e-02 -6.0845708847045898e-01</leafValues></_>
        <_>
          <internalNodes>
            0 -1 180 6.3633164390921593e-03</internalNodes>
          <leafValues>
            -9.2813961207866669e-02 1.9965499639511108e-01</leafValues></_>
        <_>
          <internalNodes>
            0 -1 273 1.9077273085713387e-02</internalNodes>
          <leafValues>
            2.8859641402959824e-02 -6.3860678672790527e-01</leafValues></_>
        <_>
          <internalNodes>
            0 -1 94 -4.1783437132835388e-02</internalNodes>
          <leafValues>
            1.9948351383209229e-01 -9.5927998423576355e-02</leafValues></_>
        <_>
          <internalNodes>
            0 -1 31 -1.5800874680280685e-02</internalNodes>
          <leafValues>
            -6.8208771944046021e-01 3.4916277974843979e-02</leafValues></_>
        <_>
          <internalNodes>
            0 -1 236 1.3748565316200256e-01</internalNodes>
          <leafValues>
            -2.8017349541187286e-02 8.4437924623489380e-01</leafValues></_>
        <_>
          <internalNodes>
            0 -1 548 1.8266339320689440e-03</internalNodes>
          <leafValues>
            -7.1296885609626770e-02 2.6580160856246948e-01</leafValues></_>
        <_>
          <internalNodes>
            0 -1 298 -2.0510777831077576e-03</internalNodes>
          <leafValues>
            2.1767960488796234e-01 -8.6676441133022308e-02</leafValues></_>
        <_>
          <internalNodes>
            0 -1 413 -3.4086650703102350e-04</internalNodes>
          <leafValues>
            -1.5762521326541901e-01 1.2742523849010468e-01</leafValues></_>
        <_>
          <internalNodes>
            0 -1 274 1.8687574192881584e-02</internalNodes>
          <leafValues>
            3.3823430538177490e-02 -5.9111261367797852e-01</leafValues></_>
        <_>
          <internalNodes>
            0 -1 161 -1.2027172744274139e-01</internalNodes>
          <leafValues>
            -5.9150862693786621e-01 3.1485609710216522e-02</leafValues></_>
        <_>
          <internalNodes>
            0 -1 386 -2.3789145052433014e-02</internalNodes>
          <leafValues>
            -2.1923285722732544e-01 9.8305717110633850e-02</leafValues></_>
        <_>
          <internalNodes>
            0 -1 518 1.4138069003820419e-02</internalNodes>
          <leafValues>
            -8.2663156092166901e-02 2.4845612049102783e-01</leafValues></_></weakClassifiers></_>
    <!-- stage 5 -->
    <_>
      <maxWeakCount>68</maxWeakCount>
      <stageThreshold>-6.5604656934738159e-01</stageThreshold>
      <weakClassifiers>
        <_>
          <internalNodes>
            0 -1 207 4.6497128903865814e-02</internalNodes>
          <leafValues>
            6.6864781081676483e-02 5.9822750091552734e-01</leafValues></_>
        <_>
          <internalNodes>
            0 -1 338 3.8862100336700678e-03</internalNodes>
          <leafValues>
            -1.0204785317182541e-01 3.3226019144058228e-01</leafValues></_>
        <_>
          <internalNodes>
            0 -1 332 5.0809150561690331e-03</internalNodes>
          <leafValues>
            -1.5223938226699829e-01 2.5224226713180542e-01</leafValues></_>
        <_>
          <internalNodes>
            0 -1 322 3.8758050650358200e-03</internalNodes>
          <leafValues>
            2.4905763566493988e-02 -5.0572234392166138e-01</leafValues></_>
        <_>
          <internalNodes>
            0 -1 482 -2.5776304304599762e-02</internalNodes>
          <leafValues>
            -4.2313480377197266e-01 7.4942559003829956e-02</leafValues></_>
        <_>
          <internalNodes>
            0 -1 432 4.0111141279339790e-03</internalNodes>
          <leafValues>
            -1.2462677806615829e-01 2.4948015809059143e-01</leafValues></_>
        <_>
          <internalNodes>
            0 -1 296 1.6958512365818024e-02</internalNodes>
          <leafValues>
            1.1793312430381775e-01 -2.3221892118453979e-01</leafValues></_>
        <_>
          <internalNodes>
            0 -1 100 -2.1171353757381439e-02</internalNodes>
          <leafValues>
            -3.2508504390716553e-01 7.9934835433959961e-02</leafValues></_>
        <_>
          <internalNodes>
            0 -1 217 -1.3144747354090214e-03</internalNodes>
          <leafValues>
            2.7091667056083679e-01 -9.6115462481975555e-02</leafValues></_>
        <_>
          <internalNodes>
            0 -1 301 -7.6030669733881950e-03</internalNodes>
          <leafValues>
            -4.3894183635711670e-01 5.0922274589538574e-02</leafValues></_>
        <_>
          <internalNodes>
            0 -1 32 5.6510412832722068e-04</internalNodes>
          <leafValues>
            -1.2632289528846741e-01 1.8163016438484192e-01</leafValues></_>
        <_>
          <internalNodes>
            0 -1 154 -1.4017284847795963e-03</internalNodes>
          <leafValues>
            2.0190820097923279e-01 -1.0829197615385056e-01</leafValues></_>
        <_>
          <internalNodes>
            0 -1 186 1.1357948184013367e-02</internalNodes>
          <leafValues>
            4.8788543790578842e-02 -5.3467988967895508e-01</leafValues></_>
        <_>
          <internalNodes>
            0 -1 284 2.2213079500943422e-03</internalNodes>
          <leafValues>
            -6.9662719964981079e-02 3.3980727195739746e-01</leafValues></_>
        <_>
          <internalNodes>
            0 -1 198 4.3793711811304092e-03</internalNodes>
          <leafValues>
            3.3202953636646271e-02 -7.1122068166732788e-01</leafValues></_>
        <_>
          <internalNodes>
            0 -1 320 1.9100662320852280e-03</internalNodes>
          <leafValues>
            -7.7432394027709961e-02 2.8270554542541504e-01</leafValues></_>
        <_>
          <internalNodes>
            0 -1 91 -2.5148460641503334e-02</internalNodes>
          <leafValues>
            3.0780741572380066e-01 -6.3743859529495239e-02</leafValues></_>
        <_>
          <internalNodes>
            0 -1 158 -3.6233738064765930e-03</internalNodes>
          <leafValues>
            2.0176112651824951e-01 -1.1332999914884567e-01</leafValues></_>
        <_>
          <internalNodes>
            0 -1 219 -3.3934429287910461e-02</internalNodes>
          <leafValues>
            -4.2325252294540405e-01 4.9790602177381516e-02</leafValues></_>
        <_>
          <internalNodes>
            0 -1 441 -2.3154634982347488e-03</internalNodes>
          <leafValues>
            2.4906560778617859e-01 -8.4735184907913208e-02</leafValues></_>
        <_>
          <internalNodes>
            0 -1 417 5.0789099186658859e-03</internalNodes>
          <leafValues>
            4.9870055168867111e-02 -4.8302134871482849e-01</leafValues></_>
        <_>
          <internalNodes>
            0 -1 285 1.7544273287057877e-02</internalNodes>
          <leafValues>
            3.4679781645536423e-02 -5.9321868419647217e-01</leafValues></_>
        <_>
          <internalNodes>
            0 -1 355 5.0229782937094569e-04</internalNodes>
          <leafValues>
            -1.4106310904026031e-01 1.4163032174110413e-01</leafValues></_>
        <_>
          <internalNodes>
            0 -1 559 -4.0176389738917351e-03</internalNodes>
          <leafValues>
            1.3118687272071838e-01 -1.4371372759342194e-01</leafValues></_>
        <_>
          <internalNodes>
            0 -1 238 1.8329736776649952e-03</internalNodes>
          <leafValues>
            -9.6183024346828461e-02 2.0511262118816376e-01</leafValues></_>
        <_>
          <internalNodes>
            0 -1 475 -2.4328124709427357e-03</internalNodes>
          <leafValues>
            -2.9645609855651855e-01 7.0638351142406464e-02</leafValues></_>
        <_>
          <internalNodes>
            0 -1 95 3.3211149275302887e-02</internalNodes>
          <leafValues>
            -4.6150520443916321e-02 4.3645352125167847e-01</leafValues></_>
        <_>
          <internalNodes>
            0 -1 509 7.0407846942543983e-04</internalNodes>
          <leafValues>
            -1.0510329157114029e-01 1.9985370337963104e-01</leafValues></_>
        <_>
          <internalNodes>
            0 -1 379 2.1192426793277264e-03</internalNodes>
          <leafValues>
            -7.8107282519340515e-02 3.0321538448333740e-01</leafValues></_>
        <_>
          <internalNodes>
            0 -1 53 -4.1401181370019913e-03</internalNodes>
          <leafValues>
            -6.1733144521713257e-01 3.2860483974218369e-02</leafValues></_>
        <_>
          <internalNodes>
            0 -1 533 -1.5256885439157486e-02</internalNodes>
          <leafValues>
            -8.6438304185867310e-01 1.9815769046545029e-02</leafValues></_>
        <_>
          <internalNodes>
            0 -1 536 1.1797858402132988e-02</internalNodes>
          <leafValues>
            3.2552167773246765e-02 -5.1790589094161987e-01</leafValues></_>
        <_>
          <internalNodes>
            0 -1 526 -2.6088343001902103e-03</internalNodes>
          <leafValues>
            2.9888835549354553e-01 -6.6161833703517914e-02</leafValues></_>
        <_>
          <internalNodes>
            0 -1 306 -1.7014335840940475e-02</internalNodes>
          <leafValues>
            5.1980167627334595e-01 -3.3980380743741989e-02</leafValues></_>
        <_>
          <internalNodes>
            0 -1 110 7.5497227953746915e-05</internalNodes>
          <leafValues>
            -1.3738252222537994e-01 1.3888046145439148e-01</leafValues></_>
        <_>
          <internalNodes>
            0 -1 490 3.8792572915554047e-02</internalNodes>
          <leafValues>
            2.5532530620694160e-02 -6.6453981399536133e-01</leafValues></_>
        <_>
          <internalNodes>
            0 -1 547 9.3521724920719862e-04</internalNodes>
          <leafValues>
            -9.8223693668842316e-02 1.9027282297611237e-01</leafValues></_>
        <_>
          <internalNodes>
            0 -1 67 -2.2863181307911873e-02</internalNodes>
          <leafValues>
            -5.3087335824966431e-01 3.6975570023059845e-02</leafValues></_>
        <_>
          <internalNodes>
            0 -1 308 -4.3026870116591454e-03</internalNodes>
          <leafValues>
            -6.4885592460632324e-01 2.4755116552114487e-02</leafValues></_>
        <_>
          <internalNodes>
            0 -1 505 -1.9919425249099731e-02</internalNodes>
          <leafValues>
            -4.8665174841880798e-01 3.2998930662870407e-02</leafValues></_>
        <_>
          <internalNodes>
            0 -1 10 1.6966411843895912e-02</internalNodes>
          <leafValues>
            -8.3569660782814026e-02 2.3509205877780914e-01</leafValues></_>
        <_>
          <internalNodes>
            0 -1 266 -3.7839305587112904e-03</internalNodes>
          <leafValues>
            -2.6715552806854248e-01 7.2394631803035736e-02</leafValues></_>
        <_>
          <internalNodes>
            0 -1 151 -3.7936493754386902e-02</internalNodes>
          <leafValues>
            -3.4601947665214539e-01 5.7900704443454742e-02</leafValues></_>
        <_>
          <internalNodes>
            0 -1 109 -2.3717810399830341e-03</internalNodes>
          <leafValues>
            1.6631641983985901e-01 -1.3677309453487396e-01</leafValues></_>
        <_>
          <internalNodes>
            0 -1 119 -7.3780799284577370e-03</internalNodes>
          <leafValues>
            2.2402058541774750e-01 -8.7692931294441223e-02</leafValues></_>
        <_>
          <internalNodes>
            0 -1 191 -1.0370408184826374e-02</internalNodes>
          <leafValues>
            -3.8732159137725830e-01 5.2232019603252411e-02</leafValues></_>
        <_>
          <internalNodes>
            0 -1 93 1.4577359892427921e-02</internalNodes>
          <leafValues>
            -6.2809690833091736e-02 3.0814668536186218e-01</leafValues></_>
        <_>
          <internalNodes>
            0 -1 298 -7.5655907858163118e-04</internalNodes>
          <leafValues>
            1.5532514452934265e-01 -1.3145564496517181e-01</leafValues></_>
        <_>
          <internalNodes>
            0 -1 216 -6.9222435355186462e-02</internalNodes>
          <leafValues>
            -3.9030909538269043e-01 5.0377570092678070e-02</leafValues></_>
        <_>
          <internalNodes>
            0 -1 174 -2.4075814872048795e-04</internalNodes>
          <leafValues>
            -1.7398774623870850e-01 1.0339364409446716e-01</leafValues></_>
        <_>
          <internalNodes>
            0 -1 30 1.4652982354164124e-03</internalNodes>
          <leafValues>
            -9.9309861660003662e-02 1.8457607924938202e-01</leafValues></_>
        <_>
          <internalNodes>
            0 -1 454 -3.0446732416749001e-03</internalNodes>
          <leafValues>
            2.5332644581794739e-01 -7.3657006025314331e-02</leafValues></_>
        <_>
          <internalNodes>
            0 -1 399 -1.9221968250349164e-04</internalNodes>
          <leafValues>
            -1.5810121595859528e-01 1.2859761714935303e-01</leafValues></_>
        <_>
          <internalNodes>
            0 -1 291 1.9321886822581291e-02</internalNodes>
          <leafValues>
            3.3320050686597824e-02 -6.6132777929306030e-01</leafValues></_>
        <_>
          <internalNodes>
            0 -1 143 9.0185925364494324e-03</internalNodes>
          <leafValues>
            -5.8827959001064301e-02 3.6494386196136475e-01</leafValues></_>
        <_>
          <internalNodes>
            0 -1 68 3.9716495666652918e-04</internalNodes>
          <leafValues>
            -1.0986404865980148e-01 1.7768393456935883e-01</leafValues></_>
        <_>
          <internalNodes>
            0 -1 260 4.2693899013102055e-03</internalNodes>
          <leafValues>
            -8.0333888530731201e-02 2.4378384649753571e-01</leafValues></_>
        <_>
          <internalNodes>
            0 -1 408 -7.7758096158504486e-03</internalNodes>
          <leafValues>
            2.9498285055160522e-01 -6.6343575716018677e-02</leafValues></_>
        <_>
          <internalNodes>
            0 -1 583 4.4138114899396896e-03</internalNodes>
          <leafValues>
            3.9689324796199799e-02 -4.7758063673973083e-01</leafValues></_>
        <_>
          <internalNodes>
            0 -1 233 -4.1274586692452431e-03</internalNodes>
          <leafValues>
            -1.9993218779563904e-01 9.6910454332828522e-02</leafValues></_>
        <_>
          <internalNodes>
            0 -1 47 -4.8946700990200043e-02</internalNodes>
          <leafValues>
            3.7123495340347290e-01 -5.3477432578802109e-02</leafValues></_>
        <_>
          <internalNodes>
            0 -1 239 1.4874212443828583e-02</internalNodes>
          <leafValues>
            -4.1385926306247711e-02 4.2269435524940491e-01</leafValues></_>
        <_>
          <internalNodes>
            0 -1 228 -3.0518854036927223e-03</internalNodes>
          <leafValues>
            1.6279077529907227e-01 -1.1312495172023773e-01</leafValues></_>
        <_>
          <internalNodes>
            0 -1 328 -1.0954339522868395e-03</internalNodes>
          <leafValues>
            1.1469054967164993e-01 -1.6457439959049225e-01</leafValues></_>
        <_>
          <internalNodes>
            0 -1 423 -2.2850882261991501e-02</internalNodes>
          <leafValues>
            -2.2655497491359711e-01 8.2875221967697144e-02</leafValues></_>
        <_>
          <internalNodes>
            0 -1 6 3.8499571382999420e-04</internalNodes>
          <leafValues>
            -1.3361909985542297e-01 1.3869985938072205e-01</leafValues></_>
        <_>
          <internalNodes>
            0 -1 569 3.8597923703491688e-03</internalNodes>
          <leafValues>
            -7.5481273233890533e-02 2.5901806354522705e-01</leafValues></_>
        <_>
          <internalNodes>
            0 -1 171 -5.5666166543960571e-01</internalNodes>
          <leafValues>
            8.2652282714843750e-01 -2.2525783628225327e-02</leafValues></_></weakClassifiers></_>
    <!-- stage 6 -->
    <_>
      <maxWeakCount>75</maxWeakCount>
      <stageThreshold>-6.9349515438079834e-01</stageThreshold>
      <weakClassifiers>
        <_>
          <internalNodes>
            0 -1 290 -2.2555287927389145e-02</internalNodes>
          <leafValues>
            6.1443805694580078e-01 1.0195813328027725e-01</leafValues></_>
        <_>
          <internalNodes>
            0 -1 237 3.2391898334026337e-02</internalNodes>
          <leafValues>
            -1.7251789569854736e-01 2.9398307204246521e-01</leafValues></_>
        <_>
          <internalNodes>
            0 -1 360 8.5379984229803085e-03</internalNodes>
          <leafValues>
            -9.2968791723251343e-02 3.4245580434799194e-01</leafValues></_>
        <_>
          <internalNodes>
            0 -1 356 7.9336939379572868e-03</internalNodes>
          <leafValues>
            -1.3995040953159332e-01 2.4388058483600616e-01</leafValues></_>
        <_>
          <internalNodes>
            0 -1 118 1.5357041731476784e-02</internalNodes>
          <leafValues>
            -9.4881348311901093e-02 2.6638454198837280e-01</leafValues></_>
        <_>
          <internalNodes>
            0 -1 372 -8.5609368979930878e-03</internalNodes>
          <leafValues>
            -3.3284133672714233e-01 7.9831279814243317e-02</leafValues></_>
        <_>
          <internalNodes>
            0 -1 147 3.0106589198112488e-02</internalNodes>
          <leafValues>
            7.7722996473312378e-02 -3.7002858519554138e-01</leafValues></_>
        <_>
          <internalNodes>
            0 -1 192 -6.9771260023117065e-02</internalNodes>
          <leafValues>
            2.8087094426155090e-01 -9.6150606870651245e-02</leafValues></_>
        <_>
          <internalNodes>
            0 -1 478 -2.7028288692235947e-02</internalNodes>
          <leafValues>
            3.0085608363151550e-01 -6.5852798521518707e-02</leafValues></_>
        <_>
          <internalNodes>
            0 -1 425 -5.2517438307404518e-03</internalNodes>
          <leafValues>
            2.5904789566993713e-01 -7.7770516276359558e-02</leafValues></_>
        <_>
          <internalNodes>
            0 -1 221 2.9482524842023849e-03</internalNodes>
          <leafValues>
            -8.1749252974987030e-02 2.7121075987815857e-01</leafValues></_>
        <_>
          <internalNodes>
            0 -1 195 -5.5221766233444214e-03</internalNodes>
          <leafValues>
            2.0207817852497101e-01 -1.0690233111381531e-01</leafValues></_>
        <_>
          <internalNodes>
            0 -1 259 -1.4259403105825186e-03</internalNodes>
          <leafValues>
            2.4565629661083221e-01 -8.3808638155460358e-02</leafValues></_>
        <_>
          <internalNodes>
            0 -1 477 1.0035414015874267e-03</internalNodes>
          <leafValues>
            -1.4687909185886383e-01 1.4111721515655518e-01</leafValues></_>
        <_>
          <internalNodes>
            0 -1 197 4.1787438094615936e-02</internalNodes>
          <leafValues>
            -6.3764706254005432e-02 3.0105137825012207e-01</leafValues></_>
        <_>
          <internalNodes>
            0 -1 300 1.3873386196792126e-03</internalNodes>
          <leafValues>
            6.9786101579666138e-02 -3.0196619033813477e-01</leafValues></_>
        <_>
          <internalNodes>
            0 -1 437 1.6651621554046869e-03</internalNodes>
          <leafValues>
            -9.1869324445724487e-02 2.2234289348125458e-01</leafValues></_>
        <_>
          <internalNodes>
            0 -1 409 6.8753841333091259e-03</internalNodes>
          <leafValues>
            -9.2058010399341583e-02 2.2688615322113037e-01</leafValues></_>
        <_>
          <internalNodes>
            0 -1 452 -4.5897113159298897e-03</internalNodes>
          <leafValues>
            1.9390666484832764e-01 -9.4057127833366394e-02</leafValues></_>
        <_>
          <internalNodes>
            0 -1 36 -1.3001339510083199e-02</internalNodes>
          <leafValues>
            -3.8251012563705444e-01 5.1049232482910156e-02</leafValues></_>
        <_>
          <internalNodes>
            0 -1 225 -1.6590248560532928e-03</internalNodes>
          <leafValues>
            2.0829612016677856e-01 -8.9871205389499664e-02</leafValues></_>
        <_>
          <internalNodes>
            0 -1 300 -4.4824962969869375e-04</internalNodes>
          <leafValues>
            -1.7192932963371277e-01 1.0687033832073212e-01</leafValues></_>
        <_>
          <internalNodes>
            0 -1 442 -1.5189890749752522e-02</internalNodes>
          <leafValues>
            -4.2356631159782410e-01 4.2345706373453140e-02</leafValues></_>
        <_>
          <internalNodes>
            0 -1 460 1.5692757442593575e-03</internalNodes>
          <leafValues>
            -7.9810343682765961e-02 2.4001450836658478e-01</leafValues></_>
        <_>
          <internalNodes>
            0 -1 512 8.1096813082695007e-03</internalNodes>
          <leafValues>
            3.7810467183589935e-02 -5.4588603973388672e-01</leafValues></_>
        <_>
          <internalNodes>
            0 -1 534 4.4476105831563473e-03</internalNodes>
          <leafValues>
            -6.5435871481895447e-02 2.8724798560142517e-01</leafValues></_>
        <_>
          <internalNodes>
            0 -1 317 -8.3351172506809235e-03</internalNodes>
          <leafValues>
            2.7726909518241882e-01 -6.3632838428020477e-02</leafValues></_>
        <_>
          <internalNodes>
            0 -1 125 6.5356686711311340e-02</internalNodes>
          <leafValues>
            3.8686200976371765e-02 -5.2154725790023804e-01</leafValues></_>
        <_>
          <internalNodes>
            0 -1 117 1.3795639574527740e-01</internalNodes>
          <leafValues>
            -3.9918255060911179e-02 5.5684804916381836e-01</leafValues></_>
        <_>
          <internalNodes>
            0 -1 470 -4.3014003895223141e-03</internalNodes>
          <leafValues>
            -2.8344407677650452e-01 6.7016430199146271e-02</leafValues></_>
        <_>
          <internalNodes>
            0 -1 160 -2.1227946504950523e-02</internalNodes>
          <leafValues>
            -4.7059664130210876e-01 3.8846720010042191e-02</leafValues></_>
        <_>
          <internalNodes>
            0 -1 246 1.4663169858977199e-03</internalNodes>
          <leafValues>
            -8.1651531159877777e-02 2.1564319729804993e-01</leafValues></_>
        <_>
          <internalNodes>
            0 -1 198 -1.9980026409029961e-03</internalNodes>
          <leafValues>
            -3.4481954574584961e-01 5.3195986896753311e-02</leafValues></_>
        <_>
          <internalNodes>
            0 -1 141 8.8777840137481689e-03</internalNodes>
          <leafValues>
            -7.3457166552543640e-02 2.4853366613388062e-01</leafValues></_>
        <_>
          <internalNodes>
            0 -1 76 -5.3836796432733536e-03</internalNodes>
          <leafValues>
            1.5723636746406555e-01 -1.2345718592405319e-01</leafValues></_>
        <_>
          <internalNodes>
            0 -1 73 -1.4901628717780113e-02</internalNodes>
          <leafValues>
            2.5657159090042114e-01 -7.0294529199600220e-02</leafValues></_>
        <_>
          <internalNodes>
            0 -1 318 1.3620422687381506e-03</internalNodes>
          <leafValues>
            -8.2838937640190125e-02 2.2619169950485229e-01</leafValues></_>
        <_>
          <internalNodes>
            0 -1 255 1.3664669357240200e-02</internalNodes>
          <leafValues>
            5.4963048547506332e-02 -3.4549263119697571e-01</leafValues></_>
        <_>
          <internalNodes>
            0 -1 548 -1.9849268719553947e-03</internalNodes>
          <leafValues>
            2.7655369043350220e-01 -6.8465828895568848e-02</leafValues></_>
        <_>
          <internalNodes>
            0 -1 348 -5.1111504435539246e-03</internalNodes>
          <leafValues>
            -7.7274256944656372e-01 2.2883193567395210e-02</leafValues></_>
        <_>
          <internalNodes>
            0 -1 60 9.7122266888618469e-03</internalNodes>
          <leafValues>
            -9.8300762474536896e-02 1.8430301547050476e-01</leafValues></_>
        <_>
          <internalNodes>
            0 -1 234 -7.7305978629738092e-04</internalNodes>
          <leafValues>
            -2.3006044328212738e-01 7.9512082040309906e-02</leafValues></_>
        <_>
          <internalNodes>
            0 -1 552 2.5211493484675884e-03</internalNodes>
          <leafValues>
            -5.9484746307134628e-02 3.1748527288436890e-01</leafValues></_>
        <_>
          <internalNodes>
            0 -1 530 -1.1299438774585724e-03</internalNodes>
          <leafValues>
            2.2522796690464020e-01 -1.0286230593919754e-01</leafValues></_>
        <_>
          <internalNodes>
            0 -1 35 -6.0422448441386223e-03</internalNodes>
          <leafValues>
            -2.7858066558837891e-01 7.7295169234275818e-02</leafValues></_>
        <_>
          <internalNodes>
            0 -1 508 2.4465541355311871e-03</internalNodes>
          <leafValues>
            -9.0250007808208466e-02 2.0310048758983612e-01</leafValues></_>
        <_>
          <internalNodes>
            0 -1 500 3.5230815410614014e-03</internalNodes>
          <leafValues>
            3.6075420677661896e-02 -5.6014454364776611e-01</leafValues></_>
        <_>
          <internalNodes>
            0 -1 304 -1.7053596675395966e-02</internalNodes>
          <leafValues>
            -6.8252837657928467e-01 2.6639953255653381e-02</leafValues></_>
        <_>
          <internalNodes>
            0 -1 149 5.7583497837185860e-03</internalNodes>
          <leafValues>
            1.9409706816077232e-02 -8.3713632822036743e-01</leafValues></_>
        <_>
          <internalNodes>
            0 -1 20 1.0744978208094835e-03</internalNodes>
          <leafValues>
            -9.8912052810192108e-02 1.9531907141208649e-01</leafValues></_>
        <_>
          <internalNodes>
            0 -1 467 -1.3062166050076485e-02</internalNodes>
          <leafValues>
            3.6588740348815918e-01 -4.8221033066511154e-02</leafValues></_>
        <_>
          <internalNodes>
            0 -1 123 5.2436117082834244e-02</internalNodes>
          <leafValues>
            -5.9286881238222122e-02 2.9498907923698425e-01</leafValues></_>
        <_>
          <internalNodes>
            0 -1 421 -3.2647103071212769e-03</internalNodes>
          <leafValues>
            -5.3257524967193604e-01 3.6674425005912781e-02</leafValues></_>
        <_>
          <internalNodes>
            0 -1 48 -3.9759777486324310e-02</internalNodes>
          <leafValues>
            -5.3903687000274658e-01 3.1259108334779739e-02</leafValues></_>
        <_>
          <internalNodes>
            0 -1 551 -4.4138904660940170e-02</internalNodes>
          <leafValues>
            -7.0486718416213989e-01 2.3205952718853951e-02</leafValues></_>
        <_>
          <internalNodes>
            0 -1 223 -7.8098103404045105e-03</internalNodes>
          <leafValues>
            -3.1772124767303467e-01 5.4747246205806732e-02</leafValues></_>
        <_>
          <internalNodes>
            0 -1 176 -6.6991366446018219e-02</internalNodes>
          <leafValues>
            6.4334595203399658e-01 -3.1940083950757980e-02</leafValues></_>
        <_>
          <internalNodes>
            0 -1 539 2.3215156048536301e-02</internalNodes>
          <leafValues>
            -1.2725913524627686e-01 1.4726105332374573e-01</leafValues></_>
        <_>
          <internalNodes>
            0 -1 445 -6.0092941857874393e-03</internalNodes>
          <leafValues>
            1.9150254130363464e-01 -9.6998296678066254e-02</leafValues></_>
        <_>
          <internalNodes>
            0 -1 582 1.3354511465877295e-03</internalNodes>
          <leafValues>
            6.1654634773731232e-02 -3.2048541307449341e-01</leafValues></_>
        <_>
          <internalNodes>
            0 -1 523 6.6267512738704681e-03</internalNodes>
          <leafValues>
            -5.4706435650587082e-02 3.2568672299385071e-01</leafValues></_>
        <_>
          <internalNodes>
            0 -1 319 1.0939663276076317e-02</internalNodes>
          <leafValues>
            5.0372827798128128e-02 -3.7860167026519775e-01</leafValues></_>
        <_>
          <internalNodes>
            0 -1 297 2.2842450998723507e-03</internalNodes>
          <leafValues>
            -9.5583841204643250e-02 1.9201731681823730e-01</leafValues></_>
        <_>
          <internalNodes>
            0 -1 329 7.3500757571309805e-04</internalNodes>
          <leafValues>
            -1.1377488821744919e-01 2.3463721573352814e-01</leafValues></_>
        <_>
          <internalNodes>
            0 -1 148 6.9062449038028717e-03</internalNodes>
          <leafValues>
            3.0917530879378319e-02 -6.4830374717712402e-01</leafValues></_>
        <_>
          <internalNodes>
            0 -1 529 9.9704973399639130e-04</internalNodes>
          <leafValues>
            -1.1670508235692978e-01 1.5559920668601990e-01</leafValues></_>
        <_>
          <internalNodes>
            0 -1 370 2.2045835852622986e-02</internalNodes>
          <leafValues>
            3.3994242548942566e-02 -5.4577422142028809e-01</leafValues></_>
        <_>
          <internalNodes>
            0 -1 474 3.7746749818325043e-02</internalNodes>
          <leafValues>
            -6.7053779959678650e-02 2.7052327990531921e-01</leafValues></_>
        <_>
          <internalNodes>
            0 -1 384 -2.8197780251502991e-02</internalNodes>
          <leafValues>
            3.3276692032814026e-01 -5.0936020910739899e-02</leafValues></_>
        <_>
          <internalNodes>
            0 -1 502 -3.3951655030250549e-02</internalNodes>
          <leafValues>
            -4.8247456550598145e-01 4.3909560889005661e-02</leafValues></_>
        <_>
          <internalNodes>
            0 -1 562 -1.0867528617382050e-02</internalNodes>
          <leafValues>
            3.3611273765563965e-01 -6.3473254442214966e-02</leafValues></_>
        <_>
          <internalNodes>
            0 -1 73 1.7375323921442032e-02</internalNodes>
          <leafValues>
            -6.9978758692741394e-02 2.4994514882564545e-01</leafValues></_>
        <_>
          <internalNodes>
            0 -1 576 -5.6895911693572998e-03</internalNodes>
          <leafValues>
            2.4452927708625793e-01 -6.7044422030448914e-02</leafValues></_>
        <_>
          <internalNodes>
            0 -1 96 -2.6896367780864239e-03</internalNodes>
          <leafValues>
            2.1912477910518646e-01 -7.8108720481395721e-02</leafValues></_>
        <_>
          <internalNodes>
            0 -1 326 1.4317682944238186e-03</internalNodes>
          <leafValues>
            -1.2751330435276031e-01 1.3968007266521454e-01</leafValues></_></weakClassifiers></_>
    <!-- stage 7 -->
    <_>
      <maxWeakCount>84</maxWeakCount>
      <stageThreshold>-7.1531230211257935e-01</stageThreshold>
      <weakClassifiers>
        <_>
          <internalNodes>
            0 -1 220 -2.0694263279438019e-02</internalNodes>
          <leafValues>
            5.4911661148071289e-01 9.5719844102859497e-02</leafValues></_>
        <_>
          <internalNodes>
            0 -1 343 -4.1856854222714901e-03</internalNodes>
          <leafValues>
            3.3529096841812134e-01 -1.0220995545387268e-01</leafValues></_>
        <_>
          <internalNodes>
            0 -1 241 9.8329819738864899e-03</internalNodes>
          <leafValues>
            -1.8167392909526825e-01 1.9872798025608063e-01</leafValues></_>
        <_>
          <internalNodes>
            0 -1 363 5.3823525086045265e-03</internalNodes>
          <leafValues>
            -1.4454914629459381e-01 2.2934123873710632e-01</leafValues></_>
        <_>
          <internalNodes>
            0 -1 564 -9.2546064406633377e-03</internalNodes>
          <leafValues>
            2.0137618482112885e-01 -1.1805137991905212e-01</leafValues></_>
        <_>
          <internalNodes>
            0 -1 401 4.8659628373570740e-04</internalNodes>
          <leafValues>
            -1.0364274680614471e-01 2.1957188844680786e-01</leafValues></_>
        <_>
          <internalNodes>
            0 -1 295 -4.6081077307462692e-03</internalNodes>
          <leafValues>
            1.6561923921108246e-01 -1.3735873997211456e-01</leafValues></_>
        <_>
          <internalNodes>
            0 -1 41 -3.1333095394074917e-03</internalNodes>
          <leafValues>
            1.6943050920963287e-01 -1.3334000110626221e-01</leafValues></_>
        <_>
          <internalNodes>
            0 -1 376 4.5079458504915237e-04</internalNodes>
          <leafValues>
            -1.3220003247261047e-01 1.8405407667160034e-01</leafValues></_>
        <_>
          <internalNodes>
            0 -1 51 6.8331426009535789e-03</internalNodes>
          <leafValues>
            -9.8655968904495239e-02 2.3729301989078522e-01</leafValues></_>
        <_>
          <internalNodes>
            0 -1 383 -9.4578124117106199e-04</internalNodes>
          <leafValues>
            -2.5353482365608215e-01 8.0431140959262848e-02</leafValues></_>
        <_>
          <internalNodes>
            0 -1 462 -3.0074212700128555e-03</internalNodes>
          <leafValues>
            1.3573844730854034e-01 -1.6696244478225708e-01</leafValues></_>
        <_>
          <internalNodes>
            0 -1 104 3.4253171179443598e-04</internalNodes>
          <leafValues>
            1.2001984566450119e-01 -1.7259162664413452e-01</leafValues></_>
        <_>
          <internalNodes>
            0 -1 242 3.3914301544427872e-02</internalNodes>
          <leafValues>
            4.0630131959915161e-02 -4.7347116470336914e-01</leafValues></_>
        <_>
          <internalNodes>
            0 -1 389 8.2151521928608418e-04</internalNodes>
          <leafValues>
            -1.3352200388908386e-01 1.7493510246276855e-01</leafValues></_>
        <_>
          <internalNodes>
            0 -1 62 -6.7980557680130005e-02</internalNodes>
          <leafValues>
            3.3868837356567383e-01 -5.8915209025144577e-02</leafValues></_>
        <_>
          <internalNodes>
            0 -1 99 4.5930694788694382e-02</internalNodes>
          <leafValues>
            3.1799007207155228e-02 -6.6300076246261597e-01</leafValues></_>
        <_>
          <internalNodes>
            0 -1 345 5.8831782080233097e-03</internalNodes>
          <leafValues>
            2.8942143544554710e-02 -6.0949265956878662e-01</leafValues></_>
        <_>
          <internalNodes>
            0 -1 526 -1.8380193505436182e-03</internalNodes>
          <leafValues>
            2.3789413273334503e-01 -7.4406459927558899e-02</leafValues></_>
        <_>
          <internalNodes>
            0 -1 436 6.4871116774156690e-04</internalNodes>
          <leafValues>
            -9.9853858351707458e-02 1.8764556944370270e-01</leafValues></_>
        <_>
          <internalNodes>
            0 -1 302 2.8145813848823309e-03</internalNodes>
          <leafValues>
            4.3741181492805481e-02 -4.1530525684356689e-01</leafValues></_>
        <_>
          <internalNodes>
            0 -1 560 -3.7891166284680367e-03</internalNodes>
          <leafValues>
            -1.8641009926795959e-01 9.6908949315547943e-02</leafValues></_>
        <_>
          <internalNodes>
            0 -1 224 2.9625292867422104e-02</internalNodes>
          <leafValues>
            4.8290837556123734e-02 -3.9281442761421204e-01</leafValues></_>
        <_>
          <internalNodes>
            0 -1 124 4.6580033376812935e-03</internalNodes>
          <leafValues>
            -1.5143038332462311e-01 1.3050517439842224e-01</leafValues></_>
        <_>
          <internalNodes>
            0 -1 49 9.9823791533708572e-03</internalNodes>
          <leafValues>
            -1.1566758155822754e-01 1.6816107928752899e-01</leafValues></_>
        <_>
          <internalNodes>
            0 -1 446 1.9318148493766785e-02</internalNodes>
          <leafValues>
            -2.8720181435346603e-02 5.9745788574218750e-01</leafValues></_>
        <_>
          <internalNodes>
            0 -1 265 -8.4959613159298897e-03</internalNodes>
          <leafValues>
            1.9502453505992889e-01 -8.9909829199314117e-02</leafValues></_>
        <_>
          <internalNodes>
            0 -1 127 -5.5249971337616444e-03</internalNodes>
          <leafValues>
            1.7664130032062531e-01 -1.0793979465961456e-01</leafValues></_>
        <_>
          <internalNodes>
            0 -1 487 -1.1947975726798177e-03</internalNodes>
          <leafValues>
            1.8503259122371674e-01 -9.1592617332935333e-02</leafValues></_>
        <_>
          <internalNodes>
            0 -1 24 2.9233791865408421e-03</internalNodes>
          <leafValues>
            -5.3847614675760269e-02 3.3336237072944641e-01</leafValues></_>
        <_>
          <internalNodes>
            0 -1 188 3.0866779386997223e-02</internalNodes>
          <leafValues>
            3.1532905995845795e-02 -5.4559725522994995e-01</leafValues></_>
        <_>
          <internalNodes>
            0 -1 258 1.4575759414583445e-03</internalNodes>
          <leafValues>
            -1.0223358124494553e-01 1.7750163376331329e-01</leafValues></_>
        <_>
          <internalNodes>
            0 -1 221 3.1054532155394554e-03</internalNodes>
          <leafValues>
            -7.5334854423999786e-02 2.8762438893318176e-01</leafValues></_>
        <_>
          <internalNodes>
            0 -1 522 4.3447174131870270e-02</internalNodes>
          <leafValues>
            2.8949558734893799e-02 -7.1113336086273193e-01</leafValues></_>
        <_>
          <internalNodes>
            0 -1 557 -4.4527277350425720e-03</internalNodes>
          <leafValues>
            -6.3868236541748047e-01 2.5025576353073120e-02</leafValues></_>
        <_>
          <internalNodes>
            0 -1 268 -4.1621746495366096e-03</internalNodes>
          <leafValues>
            -5.7626569271087646e-01 2.8497952967882156e-02</leafValues></_>
        <_>
          <internalNodes>
            0 -1 159 3.3206608146429062e-02</internalNodes>
          <leafValues>
            2.9495995491743088e-02 -5.3345143795013428e-01</leafValues></_>
        <_>
          <internalNodes>
            0 -1 18 -8.6607364937663078e-03</internalNodes>
          <leafValues>
            2.8718882799148560e-01 -6.4714439213275909e-02</leafValues></_>
        <_>
          <internalNodes>
            0 -1 130 -3.4811772406101227e-02</internalNodes>
          <leafValues>
            -3.9870911836624146e-01 4.8272877931594849e-02</leafValues></_>
        <_>
          <internalNodes>
            0 -1 279 1.0956767946481705e-03</internalNodes>
          <leafValues>
            -1.1053541302680969e-01 1.6634772717952728e-01</leafValues></_>
        <_>
          <internalNodes>
            0 -1 575 -8.4589701145887375e-03</internalNodes>
          <leafValues>
            -7.2060126066207886e-01 2.5008449330925941e-02</leafValues></_>
        <_>
          <internalNodes>
            0 -1 208 2.1133648231625557e-02</internalNodes>
          <leafValues>
            4.0808781981468201e-02 -3.9011490345001221e-01</leafValues></_>
        <_>
          <internalNodes>
            0 -1 121 9.3100547790527344e-02</internalNodes>
          <leafValues>
            -6.0253694653511047e-02 2.7764242887496948e-01</leafValues></_>
        <_>
          <internalNodes>
            0 -1 65 -1.0157482698559761e-02</internalNodes>
          <leafValues>
            1.8062402307987213e-01 -1.0069054365158081e-01</leafValues></_>
        <_>
          <internalNodes>
            0 -1 34 9.1682508355006576e-04</internalNodes>
          <leafValues>
            -1.1232466995716095e-01 1.7464624345302582e-01</leafValues></_>
        <_>
          <internalNodes>
            0 -1 5 -1.8902188539505005e-01</internalNodes>
          <leafValues>
            4.3683609366416931e-01 -4.0037713944911957e-02</leafValues></_>
        <_>
          <internalNodes>
            0 -1 157 6.5297591499984264e-03</internalNodes>
          <leafValues>
            -1.4225558936595917e-01 1.2812601029872894e-01</leafValues></_>
        <_>
          <internalNodes>
            0 -1 282 -1.3834722340106964e-02</internalNodes>
          <leafValues>
            -3.8954091072082520e-01 4.9248989671468735e-02</leafValues></_>
        <_>
          <internalNodes>
            0 -1 253 8.7957200594246387e-04</internalNodes>
          <leafValues>
            -1.0257299244403839e-01 1.8028944730758667e-01</leafValues></_>
        <_>
          <internalNodes>
            0 -1 0 -5.8172922581434250e-04</internalNodes>
          <leafValues>
            -1.8805454671382904e-01 1.0189480334520340e-01</leafValues></_>
        <_>
          <internalNodes>
            0 -1 537 3.7167707923799753e-03</internalNodes>
          <leafValues>
            2.7176683768630028e-02 -5.8368271589279175e-01</leafValues></_>
        <_>
          <internalNodes>
            0 -1 113 1.6936985775828362e-02</internalNodes>
          <leafValues>
            -2.8145603835582733e-02 6.2730205059051514e-01</leafValues></_>
        <_>
          <internalNodes>
            0 -1 455 -2.7445810846984386e-03</internalNodes>
          <leafValues>
            1.7125143110752106e-01 -1.0364978015422821e-01</leafValues></_>
        <_>
          <internalNodes>
            0 -1 167 4.4382512569427490e-03</internalNodes>
          <leafValues>
            2.9319871217012405e-02 -5.6455171108245850e-01</leafValues></_>
        <_>
          <internalNodes>
            0 -1 90 6.2558919191360474e-02</internalNodes>
          <leafValues>
            5.1038030534982681e-02 -3.1813174486160278e-01</leafValues></_>
        <_>
          <internalNodes>
            0 -1 69 -5.6571744382381439e-02</internalNodes>
          <leafValues>
            4.8950546979904175e-01 -3.7407100200653076e-02</leafValues></_>
        <_>
          <internalNodes>
            0 -1 133 1.7033773474395275e-04</internalNodes>
          <leafValues>
            -1.1023657768964767e-01 1.4760237932205200e-01</leafValues></_>
        <_>
          <internalNodes>
            0 -1 501 2.5825819466263056e-03</internalNodes>
          <leafValues>
            -1.1236418783664703e-01 1.5374004840850830e-01</leafValues></_>
        <_>
          <internalNodes>
            0 -1 352 2.9970430769026279e-03</internalNodes>
          <leafValues>
            -1.0593526810407639e-01 1.5607029199600220e-01</leafValues></_>
        <_>
          <internalNodes>
            0 -1 199 3.2018320634961128e-03</internalNodes>
          <leafValues>
            8.8958486914634705e-02 -1.9171324372291565e-01</leafValues></_>
        <_>
          <internalNodes>
            0 -1 163 -4.6905693598091602e-03</internalNodes>
          <leafValues>
            -5.2255386114120483e-01 3.4374020993709564e-02</leafValues></_>
        <_>
          <internalNodes>
            0 -1 419 -1.3334620743989944e-02</internalNodes>
          <leafValues>
            -3.8744488358497620e-01 4.7218054533004761e-02</leafValues></_>
        <_>
          <internalNodes>
            0 -1 211 1.1988219339400530e-03</internalNodes>
          <leafValues>
            -9.9499091506004333e-02 1.8842716515064240e-01</leafValues></_>
        <_>
          <internalNodes>
            0 -1 497 2.2769495844841003e-03</internalNodes>
          <leafValues>
            5.0996784120798111e-02 -3.2144933938980103e-01</leafValues></_>
        <_>
          <internalNodes>
            0 -1 358 -4.8758005723357201e-03</internalNodes>
          <leafValues>
            3.6619347333908081e-01 -4.9742534756660461e-02</leafValues></_>
        <_>
          <internalNodes>
            0 -1 179 -8.3617412019520998e-04</internalNodes>
          <leafValues>
            1.8985250592231750e-01 -8.9596085250377655e-02</leafValues></_>
        <_>
          <internalNodes>
            0 -1 27 -1.2518236413598061e-02</internalNodes>
          <leafValues>
            -3.5679349303245544e-01 4.7067712992429733e-02</leafValues></_>
        <_>
          <internalNodes>
            0 -1 305 7.7118963235989213e-04</internalNodes>
          <leafValues>
            -9.7332239151000977e-02 1.7684927582740784e-01</leafValues></_>
        <_>
          <internalNodes>
            0 -1 194 1.4117309823632240e-02</internalNodes>
          <leafValues>
            4.2585853487253189e-02 -4.4400215148925781e-01</leafValues></_>
        <_>
          <internalNodes>
            0 -1 309 1.0224511846899986e-02</internalNodes>
          <leafValues>
            1.6032792627811432e-02 -8.7081795930862427e-01</leafValues></_>
        <_>
          <internalNodes>
            0 -1 414 -7.0525048067793250e-04</internalNodes>
          <leafValues>
            1.5415689349174500e-01 -1.0761498659849167e-01</leafValues></_>
        <_>
          <internalNodes>
            0 -1 145 -4.8443777486681938e-03</internalNodes>
          <leafValues>
            1.6067947447299957e-01 -1.0593269020318985e-01</leafValues></_>
        <_>
          <internalNodes>
            0 -1 129 -2.0713854581117630e-02</internalNodes>
          <leafValues>
            -1.9537480175495148e-01 1.0216855257749557e-01</leafValues></_>
        <_>
          <internalNodes>
            0 -1 189 -2.8888822998851538e-03</internalNodes>
          <leafValues>
            2.7570247650146484e-01 -6.9049164652824402e-02</leafValues></_>
        <_>
          <internalNodes>
            0 -1 414 6.9121993146836758e-04</internalNodes>
          <leafValues>
            -8.6145766079425812e-02 1.9200347363948822e-01</leafValues></_>
        <_>
          <internalNodes>
            0 -1 586 -3.6826025461778045e-04</internalNodes>
          <leafValues>
            1.2723374366760254e-01 -1.3138720393180847e-01</leafValues></_>
        <_>
          <internalNodes>
            0 -1 542 -3.8103042170405388e-03</internalNodes>
          <leafValues>
            2.8895255923271179e-01 -5.9430424124002457e-02</leafValues></_>
        <_>
          <internalNodes>
            0 -1 277 3.7456631660461426e-02</internalNodes>
          <leafValues>
            5.9228796511888504e-02 -2.8738257288932800e-01</leafValues></_>
        <_>
          <internalNodes>
            0 -1 283 3.2754307612776756e-03</internalNodes>
          <leafValues>
            -1.2230014801025391e-01 1.6208878159523010e-01</leafValues></_>
        <_>
          <internalNodes>
            0 -1 19 -1.4549376443028450e-02</internalNodes>
          <leafValues>
            -2.7443400025367737e-01 7.2671517729759216e-02</leafValues></_>
        <_>
          <internalNodes>
            0 -1 547 6.7264784593135118e-04</internalNodes>
          <leafValues>
            -9.9911987781524658e-02 1.7117588222026825e-01</leafValues></_>
        <_>
          <internalNodes>
            0 -1 426 9.3389347195625305e-02</internalNodes>
          <leafValues>
            3.0409829691052437e-02 -6.5605664253234863e-01</leafValues></_>
        <_>
          <internalNodes>
            0 -1 150 7.7310418710112572e-03</internalNodes>
          <leafValues>
            3.6111366003751755e-02 -4.7026085853576660e-01</leafValues></_>
        <_>
          <internalNodes>
            0 -1 485 8.1997439265251160e-02</internalNodes>
          <leafValues>
            2.4884577840566635e-02 -6.1682927608489990e-01</leafValues></_></weakClassifiers></_>
    <!-- stage 8 -->
    <_>
      <maxWeakCount>84</maxWeakCount>
      <stageThreshold>-6.6813147068023682e-01</stageThreshold>
      <weakClassifiers>
        <_>
          <internalNodes>
            0 -1 331 -3.0074384994804859e-03</internalNodes>
          <leafValues>
            5.4426902532577515e-01 8.6082056164741516e-02</leafValues></_>
        <_>
          <internalNodes>
            0 -1 203 2.9099577665328979e-01</internalNodes>
          <leafValues>
            -7.7104106545448303e-02 4.0953776240348816e-01</leafValues></_>
        <_>
          <internalNodes>
            0 -1 289 -3.5738207399845123e-02</internalNodes>
          <leafValues>
            2.6494541764259338e-01 -1.4242839813232422e-01</leafValues></_>
        <_>
          <internalNodes>
            0 -1 390 -1.2432722374796867e-02</internalNodes>
          <leafValues>
            3.3558139204978943e-01 -8.3006925880908966e-02</leafValues></_>
        <_>
          <internalNodes>
            0 -1 339 -1.3385287020355463e-03</internalNodes>
          <leafValues>
            2.2246684134006500e-01 -1.0791579633951187e-01</leafValues></_>
        <_>
          <internalNodes>
            0 -1 491 9.7479186952114105e-03</internalNodes>
          <leafValues>
            -1.4317137002944946e-01 1.6578197479248047e-01</leafValues></_>
        <_>
          <internalNodes>
            0 -1 56 -1.4428049325942993e-01</internalNodes>
          <leafValues>
            4.0787667036056519e-01 -5.4740745574235916e-02</leafValues></_>
        <_>
          <internalNodes>
            0 -1 453 -2.0325444638729095e-03</internalNodes>
          <leafValues>
            -1.8764671683311462e-01 1.0914135724306107e-01</leafValues></_>
        <_>
          <internalNodes>
            0 -1 394 9.3029643176123500e-04</internalNodes>
          <leafValues>
            -1.0808474570512772e-01 2.0527537167072296e-01</leafValues></_>
        <_>
          <internalNodes>
            0 -1 447 5.6308628991246223e-03</internalNodes>
          <leafValues>
            4.8337034881114960e-02 -4.3797609210014343e-01</leafValues></_>
        <_>
          <internalNodes>
            0 -1 430 -1.3086540624499321e-02</internalNodes>
          <leafValues>
            4.0486210584640503e-01 -5.1841862499713898e-02</leafValues></_>
        <_>
          <internalNodes>
            0 -1 323 7.1785436011850834e-03</internalNodes>
          <leafValues>
            4.9343306571245193e-02 -3.8742768764495850e-01</leafValues></_>
        <_>
          <internalNodes>
            0 -1 212 1.3567911460995674e-02</internalNodes>
          <leafValues>
            4.0986508131027222e-02 -4.3744683265686035e-01</leafValues></_>
        <_>
          <internalNodes>
            0 -1 252 1.7226787749677896e-03</internalNodes>
          <leafValues>
            -8.3865031599998474e-02 2.5637978315353394e-01</leafValues></_>
        <_>
          <internalNodes>
            0 -1 256 -6.7731738090515137e-03</internalNodes>
          <leafValues>
            -4.3750265240669250e-01 4.5390382409095764e-02</leafValues></_>
        <_>
          <internalNodes>
            0 -1 80 -6.2486296519637108e-03</internalNodes>
          <leafValues>
            1.6995453834533691e-01 -9.9943228065967560e-02</leafValues></_>
        <_>
          <internalNodes>
            0 -1 50 3.0429188162088394e-02</internalNodes>
          <leafValues>
            -8.3237066864967346e-02 2.2524341940879822e-01</leafValues></_>
        <_>
          <internalNodes>
            0 -1 111 -1.0916407406330109e-01</internalNodes>
          <leafValues>
            3.2058703899383545e-01 -5.4739281535148621e-02</leafValues></_>
        <_>
          <internalNodes>
            0 -1 231 -6.6232299432158470e-03</internalNodes>
          <leafValues>
            -8.0976134538650513e-01 2.4302909150719643e-02</leafValues></_>
        <_>
          <internalNodes>
            0 -1 251 1.8524453043937683e-02</internalNodes>
          <leafValues>
            -1.2403914332389832e-01 1.2919139862060547e-01</leafValues></_>
        <_>
          <internalNodes>
            0 -1 369 -1.1407918063923717e-03</internalNodes>
          <leafValues>
            2.4423013627529144e-01 -8.4087260067462921e-02</leafValues></_>
        <_>
          <internalNodes>
            0 -1 365 3.7994552403688431e-02</internalNodes>
          <leafValues>
            2.1906895563006401e-02 -7.4253678321838379e-01</leafValues></_>
        <_>
          <internalNodes>
            0 -1 155 -1.8559753894805908e-02</internalNodes>
          <leafValues>
